{"type":"NeuralNetwork","sizes":[637,318,1],"layers":[{"weights":[],"biases":[]},{"weights":[[-0.018441764637827873,-0.09382524341344833,0.0268809013068676,-0.1741335391998291,0.0775056928396225,-0.028441406786441803,-0.13085737824440002,0.14860661327838898,-0.12142153829336166,0.034029558300971985,-0.08216839283704758,0.07430402934551239,-0.016210051253437996,0.15863268077373505,-0.13412047922611237,0.000257316161878407,-0.10483180731534958,0.06462524086236954,0.09655185788869858,0.09706418961286545,0.17891988158226013,-0.18477143347263336,-0.00722494488582015,0.10937827825546265,-0.14653794467449188,0.18798613548278809,0.16280382871627808,0.05701526254415512,-0.07320613414049149,0.14243975281715393,0.18102982640266418,0.04164823144674301,0.10453217476606369,-0.19511020183563232,-0.11557316780090332,0.12112588435411453,-0.18411727249622345,-0.09264476597309113,0.14676010608673096,-0.08305442333221436,0.18771621584892273,-0.15400396287441254,0.19451498985290527,-0.11985417455434799,0.11016660183668137,-0.06500203162431717,-0.07821111381053925,0.1623401641845703,0.043552979826927185,0.13992555439472198,-0.12960846722126007,-0.14026565849781036,0.14236554503440857,0.01633732207119465,-0.039377611130476,0.03802444785833359,0.0653974711894989,-0.18725113570690155,0.10872279852628708,-0.17011547088623047,-0.08117973059415817,-0.08912960439920425,-0.12214259058237076,0.03409595042467117,0.06375985592603683,0.15537452697753906,-0.1331702321767807,0.05267609655857086,0.16535407304763794,0.07036841660737991,0.11133716255426407,-0.03783144801855087,0.13514114916324615,0.11934288591146469,-0.05943964794278145,0.1335020661354065,0.17389938235282898,-0.18453960120677948,-0.16076478362083435,0.053701624274253845,0.02992681972682476,0.15618333220481873,-0.08948539942502975,-0.025215867906808853,-0.18957756459712982,0.14317090809345245,-0.06342951208353043,0.012632514350116253,0.0338754802942276,-0.10036208480596542,-0.12186276167631149,0.19089584052562714,0.11290378868579865,0.10468762367963791,-0.1858380287885666,-0.04060141369700432,0.06141988933086395,-0.10183439403772354,0.08331552147865295,0.11146757006645203,-0.042870741337537766,-0.14844557642936707,-0.07924828678369522,-0.10199755430221558,0.17341497540473938,0.02376233972609043,0.014765830710530281,0.002591873751953244,0.0651361271739006,0.06349834054708481,-0.14842332899570465,0.13292205333709717,0.1005021184682846,0.07502268254756927,0.03862995654344559,0.09480337053537369,0.014090809039771557,0.10110179334878922,-0.15072162449359894,0.1106414869427681,-0.01477843802422285,0.047448355704545975,-0.10594626516103745,0.09795871376991272,0.17028415203094482,-0.18672315776348114,-0.19710832834243774,0.03162859007716179,0.06151376664638519,-0.035234857350587845,0.089960977435112,-0.013605985790491104,-0.1639815717935562,0.00007609730528201908,-0.014871555380523205,-0.1600121557712555,0.18465493619441986,-0.12118756771087646,-0.1836358606815338,-0.06358587741851807,0.054227590560913086,0.09737361967563629,-0.14232614636421204,0.08881345391273499,-0.05258721485733986,0.1905723214149475,0.02937542088329792,0.042351387441158295,0.10966668277978897,-0.13188855350017548,-0.10312524437904358,0.08582346886396408,0.08805037289857864,0.038250379264354706,-0.1809157282114029,0.07615964114665985,0.08038130402565002,-0.16148246824741364,-0.05954409018158913,-0.10616850107908249,-0.06934646517038345,-0.05095331743359566,0.11027506738901138,-0.09597121179103851,-0.10160543024539948,0.12142861634492874,0.11757458746433258,0.013842608779668808,0.015364445745944977,-0.007604099344462156,0.16336148977279663,-0.08213210850954056,0.13269631564617157,0.10940243303775787,-0.13806255161762238,0.03928510844707489,-0.11896884441375732,0.13362832367420197,-0.12087903916835785,-0.040831636637449265,0.07820937782526016,-0.1304951161146164,0.0004482802178245038,0.14952072501182556,-0.13383081555366516,-0.05523759499192238,0.1321684718132019,-0.03695075958967209,0.05094972252845764,-0.07189910113811493,-0.002583095571026206,-0.03589438274502754,0.13311666250228882,-0.08785910904407501,0.17050571739673615,0.17110909521579742,0.18084682524204254,-0.17325462400913239,-0.16721196472644806,0.05054977536201477,0.013001048937439919,-0.18541568517684937,0.1437462568283081,-0.17661376297473907,0.12145557999610901,0.18473488092422485,0.14475183188915253,0.16653960943222046,-0.10365266352891922,-0.12157536298036575,0.04280388727784157,0.11956416815519333,-0.012129535898566246,-0.045374687761068344,0.10204567015171051,-0.12313247472047806,0.14446331560611725,0.056674160063266754,-0.06825317442417145,0.0690726488828659,-0.13908329606056213,-0.08595935255289078,-0.013063591904938221,-0.12576784193515778,0.08478769659996033,-0.13895049691200256,0.11063238978385925,-0.16167540848255157,-0.06295163184404373,0.06079491972923279,0.13398277759552002,-0.07488569617271423,-0.11929222196340561,0.1723482459783554,-0.17248545587062836,-0.012161324732005596,0.09410475939512253,-0.15027624368667603,-0.18174849450588226,0.14895667135715485,0.15658989548683167,-0.14985565841197968,-0.10735402256250381,-0.1591605693101883,0.04564642161130905,0.007125139702111483,-0.12765859067440033,-0.07570094615221024,0.14182208478450775,-0.1837763488292694,-0.13349932432174683,0.15565504133701324,-0.11387014389038086,-0.18925657868385315,0.1380089670419693,-0.10199428349733353,0.10287671536207199,-0.1915678083896637,-0.08715402334928513,-0.07039577513933182,0.13766096532344818,-0.08046182990074158,0.020272735506296158,0.08807170391082764,0.10032830387353897,0.10382688790559769,-0.0981830507516861,0.03690777346491814,-0.12559524178504944,0.1623443365097046,-0.13258400559425354,0.07375632971525192,-0.17457158863544464,-0.14315445721149445,0.012873208150267601,0.06368827819824219,0.08583177626132965,-0.017616156488656998,0.0478784441947937,0.1850450038909912,0.17835381627082825,0.06255444139242172,0.06223077327013016,0.19562363624572754,-0.13186275959014893,0.1566770225763321,0.15288332104682922,0.07459729164838791,-0.06657318770885468,-0.1924821436405182,-0.022408900782465935,-0.1285010129213333,0.18162983655929565,0.09622061997652054,-0.12179625034332275,0.1369011551141739,0.09684257954359055,-0.10422676056623459,0.004789430182427168,-0.1563652753829956,-0.13516400754451752,0.05257733166217804,0.17162826657295227,-0.0536222904920578,0.018516551703214645,-0.011602350510656834,-0.17941637337207794,0.18926547467708588,-0.12833371758460999,0.03456537052989006,0.012612448073923588,0.017752770334482193,0.04476077854633331,0.06428512185811996,-0.019401298835873604,0.1381140649318695,-0.035869017243385315,-0.12032945454120636,0.05340676009654999,0.0835750624537468,0.06674154847860336,0.07078035920858383,0.140779510140419,0.17859168350696564,-0.1678599715232849,-0.11208153516054153,-0.08782818913459778,0.10737194120883942,-0.14135652780532837,0.09557902067899704,-0.14957758784294128,0.1334894299507141,-0.008789703249931335,-0.10611650347709656,0.12646257877349854,-0.1746455729007721,-0.1909721940755844,-0.09329178929328918,0.12902934849262238,0.18783609569072723,0.02498357929289341,-0.023110341280698776,-0.03184792771935463,-0.16302737593650818,-0.1819400042295456,-0.15331515669822693,-0.010008695535361767,0.16269104182720184,-0.006715158931910992,0.023929553106427193,0.13965077698230743,-0.14869335293769836,-0.1624489426612854,0.08723971992731094,0.06297998875379562,-0.05771707370877266,0.1921508014202118,0.013628299348056316,0.09681929647922516,0.08548448234796524,-0.13562993705272675,-0.0961671695113182,-0.17777913808822632,0.0829925537109375,0.1692691445350647,-0.008464901708066463,0.08421994000673294,-0.1923777163028717,0.10479472577571869,0.05414444953203201,-0.037315938621759415,-0.12474498897790909,0.09834441542625427,0.12661167979240417,-0.0924491360783577,0.1504170149564743,-0.0603451244533062,0.11294776946306229,-0.09342695027589798,0.0848032534122467,-0.1499868482351303,-0.15879032015800476,0.026367029175162315,-0.1043354719877243,-0.09175167232751846,0.09853271394968033,-0.009278236888349056,-0.08157464861869812,0.03446992114186287,0.17865224182605743,0.0661369264125824,-0.1816738396883011,-0.08124585449695587,-0.07134346663951874,0.08167188614606857,0.10908352583646774,0.08197444677352905,0.028563350439071655,0.12000035494565964,0.16652511060237885,-0.13941803574562073,0.1006658598780632,-0.19211040437221527,-0.08666321635246277,-0.12015096843242645,-0.11289829015731812,0.013731935061514378,-0.13196422159671783,0.04089099168777466,0.16758601367473602,0.025096362456679344,-0.05187129229307175,-0.07996566593647003,-0.10756434500217438,0.15340912342071533,-0.049600232392549515,0.01957712508738041,-0.12457600235939026,0.17362357676029205,0.08163534849882126,0.026337899267673492,-0.01572326011955738,0.18754738569259644,-0.19231630861759186,-0.07816540449857712,0.10758689045906067,0.051566656678915024,-0.048410557210445404,0.06562539935112,-0.06876956671476364,-0.07761818170547485,0.024778394028544426,0.17410637438297272,-0.17473410069942474,0.0013566254638135433,-0.02934417687356472,-0.06624795496463776,0.1593094766139984,0.08668976277112961,-0.13217045366764069,0.0003051333478651941,-0.05601916462182999,-0.046813882887363434,-0.005893985740840435,0.007612972520291805,0.10247460752725601,0.11994951218366623,-0.026482976973056793,0.10009147226810455,-0.10727784037590027,0.003465950256213546,0.16399560868740082,-0.11389487236738205,-0.08320195227861404,0.1991383284330368,0.1487417370080948,0.08597172051668167,0.11369684338569641,-0.06370700895786285,0.16582609713077545,0.14154869318008423,-0.1329997032880783,0.1245608925819397,0.008598345331847668,0.0762454941868782,0.15780620276927948,0.19346418976783752,0.14707717299461365,-0.07454659789800644,-0.12878471612930298,0.1295187771320343,0.13500133156776428,0.05198739096522331,-0.19314777851104736,-0.05849628522992134,-0.03760789707303047,-0.044085435569286346,0.008602023124694824,-0.08521977812051773,-0.1667487621307373,-0.14669859409332275,0.07246740162372589,-0.16839802265167236,0.059888653457164764,-0.1797567456960678,-0.14186765253543854,-0.08132923394441605,0.03625001758337021,0.0449986569583416,-0.14716681838035583,-0.05310255289077759,-0.1201835498213768,-0.18634861707687378,0.1018185093998909,-0.16658848524093628,0.14041772484779358,-0.06733901053667068,0.017274636775255203,-0.16230717301368713,0.0663042888045311,-0.06755328923463821,-0.013363431207835674,-0.07192595303058624,-0.13395926356315613,0.03186425939202309,-0.0388680063188076,-0.1398676037788391,0.1903911828994751,0.14344100654125214,0.09565132111310959,0.129913792014122,0.14190711081027985,0.04182003065943718,0.0599907822906971,-0.1945858597755432,-0.1025489941239357,0.08298490196466446,0.06906586140394211,0.028071429580450058,0.17371390759944916,-0.14427202939987183,-0.07351018488407135,0.10913819074630737,-0.19451157748699188,0.19614973664283752,-0.1677616685628891,0.015999002382159233,-0.15444910526275635,-0.03933005779981613,0.034348294138908386,0.12938499450683594,0.15038426220417023,0.06705377250909805,-0.010952940210700035,-0.05550811067223549,0.14392343163490295,0.06980186700820923,0.09853533655405045,0.16890963912010193,0.10695812851190567,-0.0065799555741250515,0.15565979480743408,0.012103134766221046,-0.13312162458896637,-0.13729064166545868,-0.04942930117249489,-0.12696650624275208,0.17782434821128845,-0.09483668208122253,-0.19301854074001312,-0.052464909851551056,-0.004004471004009247,0.1764528602361679,-0.1983291357755661,0.11377201974391937,0.08811227977275848,-0.16041891276836395,0.19040776789188385,-0.02445647493004799,0.0750102624297142,0.13325180113315582,0.12390335649251938,0.03847820684313774,0.004262206144630909,-0.054957568645477295,0.09588858485221863,-0.12166167050600052,-0.09146533906459808,0.00010280446440447122,-0.04601408541202545,0.113636814057827,0.022921092808246613,0.1051887795329094,-0.0966225117444992,-0.0300860907882452,-0.15055255591869354,0.14021065831184387,-0.041588008403778076,0.15094684064388275,0.18650221824645996,-0.12615683674812317,-0.1393762081861496,0.1177457720041275,-0.06540795415639877,0.09571900963783264,0.17815175652503967,-0.024245766922831535,-0.06715818494558334,0.1184413880109787,-0.024245647713541985,0.1557423323392868,-0.08095312863588333,0.0770404189825058,0.14685964584350586,-0.13849809765815735,0.0634935051202774,-0.17445708811283112,0.12220294028520584,-0.1843857318162918,0.12913060188293457,0.02414056472480297,-0.11229446530342102,-0.16006122529506683,-0.0006124320789240301,0.05096477270126343,0.09573318064212799,0.17589068412780762,-0.03850220888853073,0.1505919247865677,0.14327599108219147,-0.11290030181407928,-0.09482523798942566,-0.07955817133188248,-0.10766579955816269,0.18956902623176575,0.16505523025989532,0.02254355512559414,-0.006545729003846645,0.1468701958656311,-0.17402173578739166,-0.02501608617603779,0.0881946012377739,0.02708379179239273,-0.16065801680088043,0.01729130744934082,0.1337335705757141,-0.08151297271251678,-0.11945372819900513,-0.06818107515573502,-0.06836237013339996,0.030526094138622284,0.1711815446615219,0.19698373973369598,-0.19775451719760895,-0.044664591550827026,-0.0022444194182753563,-0.11948993057012558],[0.12074531614780426,-0.14898629486560822,0.05731731653213501,-0.1100737676024437,0.014772800728678703,0.17451193928718567,0.020815184339880943,0.1652257740497589,0.16936372220516205,0.13659189641475677,0.04489682614803314,-0.18892163038253784,-0.18759310245513916,-0.10673048347234726,-0.03472059592604637,0.009976998902857304,-0.07812368124723434,-0.16232389211654663,0.16346749663352966,-0.11806441098451614,0.0682670846581459,0.1391754299402237,-0.06483922153711319,0.1755889654159546,-0.06414008140563965,0.047686778008937836,0.016707608476281166,0.19167280197143555,0.15327127277851105,-0.006841736380010843,0.14824330806732178,0.11492936313152313,0.0702771544456482,-0.17918145656585693,-0.10154484957456589,-0.04029444232583046,0.06618446856737137,0.19471707940101624,0.05148949474096298,-0.15925252437591553,-0.16983763873577118,-0.19855351746082306,0.0889308750629425,0.09434603154659271,0.1814534217119217,-0.14108769595623016,0.18643853068351746,-0.19336839020252228,-0.08173581212759018,-0.14163635671138763,0.09359053522348404,0.10961386561393738,-0.08237580209970474,-0.1320253610610962,0.11868492513895035,-0.08941475301980972,0.16470080614089966,-0.08115746080875397,-0.11967379599809647,0.09676297754049301,0.012235214002430439,-0.06271161884069443,0.15640436112880707,0.08693132549524307,-0.13656190037727356,-0.1485155075788498,-0.08564714342355728,-0.06881445646286011,-0.1719737946987152,0.12510910630226135,0.021635089069604874,0.14422699809074402,-0.06097240373492241,-0.024325702339410782,-0.15996421873569489,0.014138072729110718,0.13356877863407135,-0.15946032106876373,-0.07564051449298859,-0.15405882894992828,-0.004137245938181877,0.19841526448726654,-0.12376157194375992,0.025101715698838234,0.1112704947590828,0.13125541806221008,-0.1470123529434204,-0.07529532164335251,0.19723442196846008,-0.18239322304725647,0.07666303217411041,0.008160412311553955,-0.0503954216837883,0.060994651168584824,-0.028475971892476082,-0.17239871621131897,0.11377990245819092,0.08268210291862488,-0.00726232398301363,0.17120452225208282,0.07036054134368896,-0.04339537024497986,0.07646758109331131,0.1342826783657074,0.0039933715015649796,0.13954761624336243,0.015448752790689468,0.08199553191661835,-0.009890257380902767,-0.11398375034332275,-0.026938099414110184,0.10220807045698166,-0.10170051455497742,-0.08874789625406265,0.19396579265594482,0.12942001223564148,-0.10534128546714783,0.03487208113074303,0.009302767924964428,0.12289366126060486,-0.028721945360302925,0.10419688373804092,0.12593671679496765,0.1376684159040451,0.14928679168224335,-0.157124862074852,-0.06410571932792664,0.18431490659713745,0.10058681666851044,0.08064032346010208,0.12499149888753891,0.11223877221345901,-0.020045839250087738,-0.18240796029567719,0.013692997395992279,-0.18363191187381744,0.174928680062294,-0.16357764601707458,0.09149442613124847,-0.14995385706424713,0.12315065413713455,0.013739792630076408,0.1488620638847351,-0.038362350314855576,-0.06109452620148659,-0.0728706642985344,0.004566933959722519,-0.02110859751701355,-0.16637322306632996,0.029508445411920547,0.04467960074543953,0.17561468482017517,0.11559069901704788,0.15925249457359314,-0.04359344020485878,-0.06804818660020828,-0.06714800000190735,-0.04897192120552063,0.19474400579929352,0.10485295206308365,-0.14619559049606323,-0.0074941194616258144,0.16251352429389954,0.042348433285951614,-0.04618363082408905,0.07307711988687515,-0.18760685622692108,-0.02893925830721855,0.14752782881259918,0.0252522062510252,0.06358852982521057,0.07628867775201797,0.051432643085718155,0.0581049770116806,0.012239435687661171,0.06222493574023247,-0.12133660167455673,0.19732241332530975,-0.11204357445240021,-0.11876817047595978,-0.07775808870792389,-0.019183823838829994,-0.12973308563232422,-0.08794312924146652,0.007594964001327753,0.09621317684650421,0.1348603218793869,-0.05342027172446251,-0.1854763776063919,0.19383977353572845,-0.030004901811480522,0.13783176243305206,0.12728679180145264,0.07091725617647171,0.1798553317785263,-0.07783152908086777,0.172586128115654,-0.19888481497764587,-0.17371287941932678,-0.08342908322811127,0.13173732161521912,-0.09023762494325638,0.17725616693496704,-0.11496813595294952,0.14530546963214874,-0.09471651911735535,-0.03176756203174591,0.1334812194108963,0.1824081540107727,0.03330181539058685,-0.18655388057231903,-0.1901087462902069,0.012663771398365498,-0.1255798041820526,0.021066339686512947,-0.002672032220289111,-0.07572294771671295,-0.16784900426864624,-0.1342441290616989,-0.015393530018627644,0.00845908373594284,0.0286082923412323,0.052593208849430084,-0.16314654052257538,-0.07141829282045364,-0.005028713960200548,-0.11256073415279388,0.084341861307621,-0.0966234803199768,-0.05521656572818756,-0.143544539809227,0.14010518789291382,-0.1441427320241928,0.1458110809326172,-0.16501407325267792,0.006825557444244623,0.002162650926038623,0.16195739805698395,-0.012824594974517822,-0.10692736506462097,-0.07813320308923721,-0.13501890003681183,0.09034661948680878,0.10069910436868668,-0.1820630431175232,-0.19408836960792542,-0.0952787771821022,-0.021015722304582596,0.18103636801242828,-0.01199727226048708,0.17277151346206665,-0.07465468347072601,-0.13013169169425964,-0.050724927335977554,-0.10649288445711136,-0.13114836812019348,0.057676300406455994,0.07533826678991318,-0.06368102133274078,0.0540446899831295,-0.01795337162911892,0.15295125544071198,0.17978069186210632,0.05409272760152817,0.11989205330610275,-0.14481033384799957,-0.12085109204053879,-0.16433601081371307,0.044862113893032074,-0.12254458665847778,0.0603923462331295,0.12413913756608963,0.04478320851922035,0.01953880675137043,-0.05554302781820297,0.12186241894960403,0.05246857926249504,-0.06284331530332565,-0.03982812911272049,-0.02919023670256138,-0.09147527813911438,-0.1094227284193039,-0.088677316904068,-0.16447332501411438,0.008967677131295204,0.19522015750408173,-0.0822678878903389,-0.10555794090032578,-0.10988839715719223,0.057159263640642166,0.0754627138376236,0.18831095099449158,0.11741077899932861,-0.0460529699921608,0.162414088845253,0.008784818463027477,0.01579153537750244,-0.15100130438804626,0.18671457469463348,0.10847803205251694,-0.10480190813541412,-0.02303769439458847,-0.018224231898784637,0.12737411260604858,0.04974833503365517,0.020425787195563316,-0.12599733471870422,0.040249694138765335,0.09233298897743225,-0.11414828896522522,0.11213131994009018,-0.08401600271463394,-0.18220870196819305,0.1382855772972107,0.08201181143522263,-0.13595174252986908,0.014420193620026112,0.11872970312833786,0.1098894402384758,-0.15154899656772614,0.07703544944524765,-0.028909504413604736,-0.15445488691329956,0.1825324296951294,0.16456946730613708,-0.09591218829154968,0.1887381374835968,0.03704600781202316,0.17718088626861572,-0.1398518979549408,0.16313014924526215,0.04888707771897316,-0.08938926458358765,0.05783217027783394,0.13536138832569122,-0.19585202634334564,-0.19469696283340454,0.0552414245903492,0.09450417011976242,-0.10850510001182556,0.07015696167945862,0.07954598218202591,-0.058311354368925095,-0.17181500792503357,0.17090719938278198,-0.13983884453773499,0.10454130172729492,0.043219733983278275,0.14245226979255676,-0.1593741774559021,-0.18689237534999847,0.022454863414168358,-0.02021780237555504,0.01921384036540985,-0.1979045420885086,0.056307751685380936,-0.185215562582016,0.12678444385528564,0.09616091102361679,-0.1451823115348816,0.17250458896160126,0.12034911662340164,-0.00033720184001140296,-0.16560590267181396,-0.08573012053966522,-0.10336945950984955,0.05754455551505089,0.10319811850786209,0.14260463416576385,0.1521630734205246,-0.10047712177038193,0.19618521630764008,0.05437270179390907,-0.05648684501647949,-0.07066580653190613,0.016126513481140137,0.05721156671643257,0.1353377401828766,0.07771410048007965,-0.09445200115442276,0.0221298448741436,-0.086272694170475,-0.01799718476831913,-0.007135980296880007,-0.1316956877708435,0.1105031743645668,0.11769013851881027,0.022668249905109406,-0.029343025758862495,-0.08672362565994263,-0.1821245551109314,0.08139573782682419,0.09830298274755478,-0.06411011517047882,-0.10057064145803452,0.03618326410651207,0.0013395861024037004,0.12241391092538834,-0.0706196278333664,0.03681354597210884,0.1648285984992981,0.0072182645089924335,-0.03673681989312172,0.10562630742788315,0.13500836491584778,0.1284361183643341,-0.10287117213010788,-0.14314356446266174,-0.02089722640812397,0.13808277249336243,-0.03232666105031967,-0.14346487820148468,0.0872456505894661,0.047135595232248306,-0.17660726606845856,0.18893305957317352,-0.026054831221699715,0.1282893270254135,0.1160079687833786,0.10261978209018707,-0.0735883042216301,0.01554604060947895,0.19058522582054138,0.16217616200447083,0.049773432314395905,-0.18204061686992645,-0.09436286985874176,0.046547308564186096,0.01983291283249855,0.050071414560079575,-0.14117278158664703,-0.16281883418560028,-0.12748508155345917,0.13989481329917908,0.15199513733386993,0.01645863987505436,0.026636360213160515,-0.18497805297374725,-0.17740441858768463,0.012385347858071327,0.05622154101729393,0.1001986488699913,0.10091856122016907,0.17419923841953278,-0.09407857060432434,-0.1896691918373108,-0.06287278980016708,0.02422485314309597,0.17357589304447174,-0.10018842667341232,-0.017862098291516304,0.16502708196640015,-0.12219859659671783,0.18874873220920563,0.06544860452413559,0.16532662510871887,-0.0909663662314415,0.08567076176404953,0.1982218325138092,-0.12349674850702286,-0.08460257202386856,0.1903103142976761,0.0463874414563179,-0.06839451193809509,0.009928002953529358,0.19505825638771057,0.0777190625667572,-0.024206101894378662,-0.17519432306289673,0.08041772246360779,-0.0006479853764176369,0.051070041954517365,-0.010681264102458954,-0.004696767311543226,-0.05139854550361633,0.03966239467263222,0.19805699586868286,-0.1196122020483017,0.10534568130970001,0.18148498237133026,-0.017538249492645264,0.1791318655014038,-0.15295715630054474,-0.16922450065612793,-0.04438593611121178,-0.06031617522239685,0.15997886657714844,0.1222945898771286,-0.026240574195981026,-0.0409252755343914,0.13821525871753693,0.08620071411132812,-0.037569236010313034,-0.051038239151239395,-0.07929817587137222,-0.048212841153144836,-0.017473585903644562,-0.1718837022781372,0.12742994725704193,-0.05652632936835289,-0.1712513566017151,-0.13412630558013916,-0.07892954349517822,-0.05198058485984802,-0.03769905865192413,0.15756124258041382,-0.006402732338756323,-0.146123006939888,0.031117906793951988,-0.16502906382083893,0.04942413046956062,-0.1835789829492569,0.1228686049580574,0.13914060592651367,0.09732087701559067,0.03164787217974663,-0.15952403843402863,-0.006728319451212883,0.04840385541319847,0.10034876316785812,-0.14155738055706024,-0.04595639556646347,-0.03807834908366203,-0.1978735774755478,0.05801581218838692,-0.05432548746466637,0.08369976282119751,0.1988363265991211,0.09490317851305008,-0.022113075479865074,-0.05127245932817459,0.1070437878370285,0.11225935816764832,-0.031046893447637558,0.19492356479167938,0.01169472187757492,0.021343467757105827,0.1261526495218277,0.08785619586706161,0.07468932867050171,0.022258883342146873,-0.11891379207372665,-0.08888006210327148,-0.11484478414058685,0.10215805470943451,-0.026024552062153816,-0.14942805469036102,0.01910790242254734,0.06216254457831383,-0.1768561750650406,-0.1833290308713913,-0.1549810767173767,-0.019928913563489914,-0.05773071199655533,-0.0312414038926363,-0.10936713218688965,-0.18758633732795715,0.030352244153618813,-0.07859521359205246,0.08746420592069626,-0.03750171512365341,0.17250996828079224,-0.06246715411543846,0.1784711480140686,0.08141098916530609,-0.08735341578722,-0.1706678867340088,-0.1619298756122589,-0.12170346826314926,-0.0993368923664093,0.173654243350029,-0.11591102927923203,0.15195700526237488,-0.17413903772830963,0.1719435304403305,-0.16729836165905,-0.07376710325479507,-0.08028823137283325,0.1313188523054123,0.12022873759269714,0.17157526314258575,0.03327645733952522,-0.03717442974448204,-0.04608432576060295,0.1997530460357666,0.1101905032992363,0.06602023541927338,0.1804346889257431,-0.07444362342357635,-0.01744566671550274,0.12624570727348328,0.09421554207801819,-0.005410400219261646,-0.12676453590393066,0.168241485953331,0.06994988769292831,-0.03582071512937546,-0.063100166618824,-0.05542190745472908,-0.017203163355588913,0.022700006142258644,-0.049243755638599396,0.0038780891336500645,-0.10714154690504074,-0.19192911684513092,-0.028121743351221085,0.15799419581890106,0.09107018262147903,0.17303122580051422,0.1926911622285843,-0.0770917758345604,-0.03883114829659462,-0.07233474403619766,-0.16984713077545166,-0.19836200773715973,-0.008807258680462837,0.10627440363168716,0.14041511714458466,-0.18550480902194977,-0.0435190349817276,0.08723477274179459,-0.17947731912136078,0.034831151366233826,-0.18336917459964752,-0.005855089519172907,0.09966377168893814,0.1788950115442276,-0.03613514080643654,0.17910754680633545,0.07768498361110687,-0.04313339293003082,0.07509257644414902,-0.15144425630569458,-0.10676853358745575,-0.12264756858348846,-0.17278265953063965,-0.014727562665939331],[0.05545984208583832,-0.13445253670215607,0.001097728731110692,0.06701865047216415,0.06616499274969101,0.173848494887352,-0.18829549849033356,0.03516938537359238,0.02819538488984108,0.0998736247420311,-0.06591136753559113,0.15536442399024963,0.09119167923927307,-0.16699707508087158,0.011746890842914581,-0.10805570334196091,0.1531183421611786,0.14147056639194489,-0.1731957346200943,-0.07252218574285507,0.1974371373653412,0.14561207592487335,0.12439460307359695,0.011641577817499638,0.11080248653888702,-0.11193358898162842,0.11809199303388596,-0.13953401148319244,0.052685417234897614,0.13512665033340454,-0.16896282136440277,-0.11355385929346085,0.048256002366542816,0.11418010294437408,0.03104856237769127,-0.05428175628185272,-0.03974601626396179,-0.027789242565631866,-0.09156396985054016,0.10307391732931137,-0.18544943630695343,0.008718695491552353,-0.054786596447229385,-0.19228516519069672,0.024890605360269547,-0.021637441590428352,-0.09477446973323822,-0.02604582905769348,-0.10636018961668015,0.04251345619559288,-0.10578354448080063,0.1940939575433731,-0.1710386425256729,0.04458491504192352,0.04470612481236458,-0.05693400651216507,-0.060534924268722534,-0.0987585112452507,-0.004719333723187447,-0.0007861965568736196,-0.05507247895002365,0.1877570003271103,-0.06562524288892746,0.052027322351932526,0.16703186929225922,-0.044862300157547,0.1017586812376976,0.09057746082544327,-0.19504272937774658,0.1832810789346695,-0.19250307977199554,-0.07538453489542007,-0.1002921462059021,-0.1534656584262848,-0.14562121033668518,-0.17011398077011108,-0.05985329672694206,0.07315056771039963,-0.15608835220336914,-0.024497520178556442,0.11881587654352188,0.03730045258998871,-0.11572883278131485,-0.10872291028499603,-0.17269110679626465,0.04151085391640663,0.0960962176322937,-0.0052152941934764385,-0.16108165681362152,-0.06780056655406952,-0.1540866643190384,-0.02150520123541355,0.19304922223091125,0.05165795236825943,-0.11619184166193008,0.12316472083330154,0.03631129860877991,-0.061574362218379974,-0.08621899783611298,-0.034603334963321686,-0.07091105729341507,0.10430550575256348,-0.0535256490111351,0.05839001014828682,0.012337521649897099,0.03457130119204521,0.12628406286239624,-0.03686121851205826,-0.03025103360414505,0.1684577912092209,0.07537031918764114,0.17678917944431305,0.027394477277994156,0.045275066047906876,0.1315566897392273,0.15578649938106537,0.14264973998069763,0.0830322727560997,-0.12597331404685974,-0.026583006605505943,-0.007741869427263737,0.16168560087680817,-0.1279265135526657,-0.0004476683388929814,-0.14335349202156067,-0.10879888385534286,-0.07589329034090042,0.01792168617248535,-0.04434162750840187,-0.16065743565559387,0.1992001235485077,-0.12076197564601898,-0.014439454302191734,0.046842996031045914,0.044162534177303314,-0.15670418739318848,-0.006649804301559925,-0.08065013587474823,-0.016598116606473923,0.08902528136968613,0.11090035736560822,0.0657065287232399,0.12677834928035736,0.16303856670856476,0.09181497246026993,-0.05047440156340599,-0.011243075132369995,-0.04233745113015175,-0.02823096141219139,0.005431868601590395,-0.15611200034618378,0.15659524500370026,-0.17662683129310608,-0.19047756493091583,0.014261996373534203,-0.07949984073638916,-0.18863512575626373,0.0460018552839756,-0.06168128177523613,-0.0500071719288826,0.04794934391975403,-0.1582251936197281,0.16215789318084717,-0.12109962105751038,0.083591528236866,-0.1647913157939911,-0.19551686942577362,0.029173875227570534,-0.009261278435587883,0.09938837587833405,-0.09586138278245926,0.16661767661571503,-0.014581972733139992,0.11459628492593765,-0.12437404692173004,0.043073054403066635,0.000392540474422276,-0.10832790285348892,-0.002108632819727063,0.12039249390363693,-0.13681916892528534,0.0689561516046524,-0.06497989594936371,-0.18440285325050354,0.1910276710987091,-0.06068479269742966,0.17686034739017487,-0.13851557672023773,-0.11814303696155548,0.11119980365037918,-0.04178297147154808,-0.10344352573156357,-0.0954732820391655,0.09409493207931519,-0.040419407188892365,0.1056869849562645,0.16885624825954437,-0.18176397681236267,-0.039814542979002,-0.1625279188156128,0.06136156618595123,0.0803416296839714,-0.06165827438235283,-0.11281634122133255,-0.1813541203737259,-0.17406906187534332,0.04661858081817627,0.0011559863341972232,-0.18945646286010742,0.0546087808907032,-0.07897544652223587,-0.07267172634601593,-0.1939803957939148,0.14443853497505188,0.007567041087895632,0.09456563740968704,0.17437662184238434,-0.12446759641170502,0.03959603235125542,-0.09575153142213821,0.012758986093103886,0.10400228947401047,0.1327303647994995,-0.14728854596614838,-0.15938691794872284,-0.08289311081171036,-0.1609335094690323,0.1020403653383255,0.1641404777765274,0.11292647570371628,-0.03632519021630287,-0.09248442947864532,0.17158816754817963,-0.14453251659870148,-0.16286113858222961,0.08354256302118301,0.0024255341850221157,0.1955913007259369,0.05126946046948433,-0.1692049354314804,-0.10706999152898788,0.13882268965244293,-0.13883338868618011,-0.13013878464698792,0.19157522916793823,-0.10302725434303284,0.09760753810405731,0.019926726818084717,-0.1785634458065033,0.14717361330986023,-0.12904056906700134,0.059828344732522964,-0.10595694929361343,0.17697235941886902,-0.058270204812288284,0.1499636322259903,-0.015143206343054771,0.07496322691440582,0.0540972463786602,0.08611921221017838,-0.07954314351081848,0.1741550862789154,0.17879639565944672,0.18563303351402283,0.12292982637882233,-0.08073191344738007,0.05177212506532669,-0.1074003279209137,-0.06794000416994095,0.14023521542549133,0.10534822195768356,-0.18765133619308472,0.16685520112514496,-0.15471704304218292,0.07812949270009995,0.00010362545435782522,0.19548667967319489,0.00759959127753973,-0.04305141046643257,-0.07762648165225983,-0.054573941975831985,-0.10137905180454254,0.14092344045639038,0.05653310939669609,0.050978414714336395,-0.07795566320419312,0.051178835332393646,-0.13144880533218384,0.00022711964265909046,0.15906073153018951,0.0853898748755455,-0.13533885776996613,-0.13804695010185242,-0.04879201203584671,-0.19001492857933044,-0.015927167609333992,-0.15073038637638092,0.14536942541599274,0.11013719439506531,-0.13134969770908356,-0.11658814549446106,0.08818996697664261,-0.11534019559621811,-0.16879451274871826,0.14661899209022522,-0.1154015064239502,-0.13562943041324615,0.05502275004982948,-0.1430014818906784,-0.19924336671829224,-0.17167820036411285,0.1647264063358307,0.05006902292370796,-0.004676570650190115,-0.09357292205095291,-0.1062559112906456,0.1016227975487709,-0.0991731807589531,-0.14557096362113953,0.0038102089893072844,0.13405944406986237,0.0528017021715641,0.09306111931800842,-0.01900213211774826,0.033232323825359344,-0.020292920991778374,0.13162460923194885,-0.1587277352809906,0.13795576989650726,-0.17855305969715118,-0.18205171823501587,-0.13964948058128357,0.03524049371480942,-0.15810710191726685,0.09501396119594574,0.05787520483136177,0.024591855704784393,0.015095693059265614,0.1187489926815033,0.03520959988236427,-0.18945300579071045,-0.15228606760501862,0.12171458452939987,-0.08032318949699402,0.11428610235452652,0.1221192479133606,-0.04698961228132248,0.0537293441593647,-0.05638119578361511,0.1990242898464203,-0.07745123654603958,-0.18622872233390808,-0.17160958051681519,-0.08887870609760284,-0.08891911059617996,0.06661070138216019,-0.010238868184387684,-0.18186055123806,0.001759717590175569,0.07270427793264389,0.057739902287721634,-0.07842770218849182,0.0628577321767807,-0.05671936273574829,0.1936511993408203,-0.07600226998329163,-0.09480495750904083,0.06428035348653793,-0.07061021775007248,0.19232788681983948,0.16752907633781433,0.005676392465829849,0.03070581890642643,0.19388450682163239,0.036965370178222656,-0.1298828423023224,-0.09536061435937881,-0.025215433910489082,-0.059920910745859146,0.19971129298210144,-0.053490545600652695,0.009026391431689262,-0.024453703314065933,-0.03644323721528053,-0.03449714556336403,-0.1682509332895279,0.15953491628170013,0.12854067981243134,0.1396188735961914,-0.12211159616708755,0.18442916870117188,-0.0144532211124897,-0.020035000517964363,0.16754832863807678,-0.1386180967092514,0.07677111774682999,0.04879136383533478,0.02289756014943123,0.08293760567903519,0.02542327344417572,0.04050935432314873,0.013305974192917347,-0.15320076048374176,-0.07933784276247025,0.05987510457634926,0.17131419479846954,-0.04746221750974655,-0.08835488557815552,0.15457004308700562,0.01352434977889061,-0.12012060731649399,-0.08325572311878204,-0.11942184716463089,0.02900046855211258,-0.1326012760400772,0.0008417712524533272,-0.0035295565612614155,0.15076947212219238,0.14491483569145203,-0.024894937872886658,-0.14865048229694366,-0.03762291744351387,-0.1575954556465149,0.15250208973884583,0.09884883463382721,0.15791362524032593,-0.0644516870379448,-0.045325908809900284,0.039674218744039536,-0.09580150991678238,0.13159222900867462,-0.19276463985443115,0.11237388104200363,-0.16971512138843536,-0.16071969270706177,-0.09051011502742767,0.0005829273723065853,0.018463054671883583,-0.02459542825818062,0.1324874758720398,-0.11410238593816757,-0.06499620527029037,0.04719414561986923,-0.1743243783712387,-0.12374211847782135,0.04233125224709511,-0.02547689527273178,-0.08734501153230667,0.19152407348155975,0.16849523782730103,-0.1393478810787201,0.024716151878237724,0.14450351893901825,-0.08471884578466415,0.17537261545658112,-0.17638231813907623,0.103122778236866,0.02128433622419834,0.09951338171958923,0.06621935963630676,0.1277434229850769,-0.12759365141391754,-0.10879403352737427,-0.03442208841443062,0.1646343171596527,-0.06229301169514656,-0.07704167068004608,0.09563439339399338,0.13475237786769867,-0.0062438445165753365,-0.011897954158484936,-0.0470634289085865,0.1399758756160736,-0.18154093623161316,0.010992542840540409,0.08104568719863892,-0.1391197144985199,0.06387101113796234,0.16577741503715515,-0.16342829167842865,-0.08966342359781265,-0.18442223966121674,0.05314496532082558,-0.16106240451335907,-0.08902420848608017,-0.1729051023721695,-0.010650673881173134,-0.1499914973974228,-0.1195453479886055,-0.09444569051265717,-0.072747141122818,-0.10477747023105621,0.1685241013765335,0.01604887843132019,-0.07559105008840561,-0.19870468974113464,-0.006941642612218857,-0.015662239864468575,0.016295982524752617,0.058517567813396454,-0.07536233216524124,-0.03539597988128662,0.11268195509910583,0.01686674728989601,0.09837522357702255,0.1192483901977539,-0.13770808279514313,-0.09181435406208038,-0.0005204622866585851,0.19271638989448547,0.08065544068813324,-0.0591353178024292,-0.0950598418712616,0.19333986937999725,-0.03769245743751526,0.19427287578582764,0.18419811129570007,-0.04535591974854469,-0.039713479578495026,0.0012567767407745123,-0.07384368777275085,0.12530966103076935,0.1618647277355194,0.09488270431756973,0.10843842476606369,-0.13430888950824738,0.10720563679933548,-0.07227269560098648,0.1711663454771042,-0.13385336101055145,-0.08559948951005936,-0.14704197645187378,0.17287619411945343,0.1535092443227768,0.19101972877979279,0.1511460840702057,0.04022243246436119,0.047485966235399246,0.05071452260017395,-0.11972527205944061,-0.15936286747455597,0.12265772372484207,-0.0678972452878952,-0.18647325038909912,0.06633324176073074,0.10343372076749802,-0.14208124577999115,0.007843941450119019,-0.17061731219291687,-0.0667630285024643,-0.18700021505355835,0.14258849620819092,0.13675203919410706,0.18769998848438263,0.14986395835876465,-0.005588085390627384,0.1207258403301239,-0.1792377531528473,-0.019243016839027405,0.1730751246213913,0.01770411618053913,-0.17330697178840637,0.17342479526996613,-0.09409262984991074,0.035261690616607666,0.01163417473435402,-0.169121652841568,-0.11934134364128113,0.00663569662719965,-0.0434027761220932,-0.10358411073684692,-0.13868801295757294,-0.1426697075366974,0.07726643979549408,0.006033710669726133,-0.15348510444164276,0.10932494699954987,0.00010605211718939245,0.1639852374792099,0.1756247878074646,0.195509672164917,0.008618666790425777,-0.15859821438789368,0.07134319096803665,-0.11021707952022552,0.0821545198559761,0.19473718106746674,0.04997324198484421,-0.1783583015203476,-0.054279621690511703,-0.11469710618257523,0.06359075009822845,0.1462320238351822,-0.13476622104644775,-0.07271791994571686,0.0240994431078434,0.19389449059963226,-0.0897216722369194,-0.11492850631475449,0.05528372898697853,0.1991358995437622,0.09877432882785797,0.1645849049091339,-0.041611090302467346,0.1492825150489807,0.18037888407707214,0.04962686076760292,-0.17044861614704132,-0.03691564127802849,0.06970719248056412,0.16046543419361115,0.07841186225414276,-0.14183762669563293,0.12274361401796341,0.17500372231006622,-0.16047924757003784,0.08566600829362869,0.06755661964416504,-0.05134199932217598,0.06922103464603424,0.1423303186893463,-0.1186913400888443,-0.17940011620521545,-0.04685690999031067,-0.18715937435626984,0.004929109010845423,-0.06408072263002396,-0.0502457357943058,-0.13943113386631012,0.12131794542074203,0.0516643188893795,0.18863408267498016,0.020554915070533752,0.08783554285764694,0.19853781163692474,-0.0291850958019495,0.10177913308143616],[0.02360634319484234,0.012429465539753437,-0.0030626074876636267,0.17558179795742035,-0.13135740160942078,-0.12308190762996674,-0.03807508945465088,0.03722170740365982,0.11832529306411743,-0.18696078658103943,0.08215763419866562,-0.007624877616763115,0.03297629952430725,0.19189141690731049,0.14488738775253296,-0.1484905183315277,0.0969066247344017,0.0994480550289154,0.14213427901268005,-0.09033746272325516,-0.015931181609630585,0.17914947867393494,-0.19253365695476532,0.11397267878055573,-0.06987006217241287,0.06514082849025726,0.1522727906703949,-0.12461631745100021,0.16322924196720123,0.17142392694950104,0.14504019916057587,0.09615729004144669,0.02372240647673607,-0.001541313948109746,-0.041234876960515976,0.13091515004634857,-0.012829791754484177,0.1856423020362854,-0.1466822326183319,-0.15864720940589905,0.18020886182785034,-0.10513725876808167,0.034897059202194214,0.0911121740937233,0.15167397260665894,-0.09358438849449158,0.05361661687493324,-0.07141200453042984,-0.17714862525463104,0.055179547518491745,-0.00418518390506506,-0.07958237826824188,-0.16090235114097595,0.04637068510055542,0.19680801033973694,0.0578182116150856,0.1661003977060318,0.1554495096206665,-0.17842277884483337,0.136092871427536,0.18547163903713226,-0.029452864080667496,0.0705840215086937,0.03220292553305626,0.005538450554013252,0.11146177351474762,-0.1732197105884552,-0.12418866902589798,0.19921378791332245,-0.061024051159620285,0.1875884234905243,-0.11350562423467636,-0.0395546592772007,0.15101176500320435,0.09146009385585785,-0.010954033583402634,0.19827331602573395,0.08846583962440491,-0.05185532197356224,0.12014346569776535,0.06924363225698471,-0.0486878864467144,0.1326618194580078,-0.1393832117319107,-0.08480697870254517,-0.11006539314985275,-0.09747909009456635,0.1658836156129837,0.01157060544937849,0.1742505431175232,0.16855117678642273,-0.09047935903072357,-0.004728278145194054,0.1822572946548462,0.05383835732936859,0.06516170501708984,0.128679558634758,-0.19575002789497375,-0.12951374053955078,0.15386198461055756,-0.07165254652500153,-0.1693805456161499,-0.1548456996679306,-0.1305304914712906,0.02156030386686325,-0.188044473528862,-0.13106395304203033,0.15625199675559998,-0.11269207298755646,-0.027285747230052948,-0.04200209304690361,0.11968453973531723,0.09422130882740021,-0.13587577641010284,-0.09635349363088608,-0.1708040088415146,0.010659782215952873,0.03364032506942749,0.08826254308223724,0.13874049484729767,-0.040930651128292084,0.12384583801031113,0.028864679858088493,0.12391679733991623,-0.19477446377277374,-0.10854510217905045,-0.0751243382692337,0.07540535181760788,-0.07720515131950378,0.08121375739574432,-0.043481990694999695,0.11807084828615189,0.11738882213830948,0.1901688575744629,0.01915844716131687,-0.1317225694656372,-0.19589869678020477,-0.1787102222442627,0.12497061491012573,0.06956017017364502,-0.06939990818500519,-0.09456358104944229,0.1550064980983734,0.016996152698993683,0.016065523028373718,0.09397763013839722,-0.09980590641498566,-0.19151706993579865,0.08809185028076172,-0.04880252480506897,-0.16922679543495178,0.03273961693048477,-0.00047836435260251164,0.15217342972755432,-0.008520190604031086,0.13402575254440308,0.16411486268043518,0.042229827493429184,-0.18123528361320496,0.12852390110492706,-0.1496468484401703,-0.05606768652796745,0.1628655642271042,0.12408678233623505,-0.1257929801940918,-0.07660046964883804,0.03188105672597885,0.10768347233533859,0.13519231975078583,-0.04191496595740318,-0.16194088757038116,-0.11209043115377426,-0.06196611002087593,-0.06566418707370758,0.14924246072769165,0.06886258721351624,-0.17928406596183777,-0.05692526698112488,-0.04105500131845474,-0.16487091779708862,-0.026784930378198624,0.19121043384075165,-0.02524595335125923,0.15119411051273346,0.03423004597425461,-0.08110107481479645,-0.10567308217287064,0.18047191202640533,-0.10557027161121368,-0.006134238094091415,-0.17708247900009155,-0.06274232268333435,0.10375417023897171,-0.1200421005487442,0.12491284310817719,-0.062421176582574844,0.07159782201051712,-0.01386334840208292,-0.0955161303281784,0.10732273757457733,-0.17023389041423798,-0.058661337941884995,-0.03760618343949318,0.1986570656299591,0.021830787882208824,0.1601797342300415,0.1333714872598648,-0.07280181348323822,0.02517443150281906,-0.17748238146305084,0.046964406967163086,0.13725842535495758,0.03247060254216194,0.17485736310482025,-0.1258399337530136,0.04106822982430458,0.17163826525211334,-0.0005525096785277128,-0.1942390352487564,0.045283835381269455,-0.15829280018806458,0.19848382472991943,-0.19519595801830292,-0.02374269813299179,0.09052418917417526,-0.003381886053830385,-0.1357826143503189,-0.16328385472297668,-0.1667269617319107,-0.07289841771125793,-0.16155213117599487,-0.19027556478977203,-0.07388456910848618,-0.11707690358161926,-0.022763842716813087,0.11169798672199249,-0.054900314658880234,0.004037909209728241,0.039397530257701874,0.09241417050361633,-0.02614968828856945,-0.06026575341820717,0.11892885714769363,-0.13671018183231354,0.07875637710094452,-0.07084165513515472,0.13070780038833618,-0.13135847449302673,-0.05320798605680466,-0.017406368628144264,0.0943707600235939,0.057944461703300476,0.19177007675170898,0.06206941604614258,-0.15909600257873535,0.045312125235795975,0.015039113350212574,-0.05207531526684761,0.11021590232849121,0.031735993921756744,0.016706125810742378,0.15627983212471008,0.03915791213512421,0.033035654574632645,0.13792185485363007,-0.08928252756595612,0.03323812782764435,0.11771532148122787,-0.06888440251350403,-0.057116471230983734,-0.06083527207374573,0.034432392567396164,-0.0426221527159214,-0.1536887139081955,0.061014216393232346,-0.1702480912208557,0.196125790476799,-0.05771280825138092,0.03983044624328613,0.029173770919442177,0.1276566982269287,0.15135514736175537,-0.03793586418032646,0.19944985210895538,-0.19575612246990204,-0.15541334450244904,0.1794303059577942,-0.07106014341115952,-0.05888838693499565,0.056606896221637726,-0.17075416445732117,0.08670282363891602,0.19663092494010925,-0.004188116639852524,-0.12106853723526001,0.059316251426935196,0.02754291705787182,-0.1096150353550911,-0.04184859246015549,-0.0409906767308712,0.04233377426862717,-0.009161638095974922,-0.049001894891262054,-0.16990336775779724,-0.05307578295469284,0.006047789007425308,-0.1663135141134262,0.13748298585414886,0.14737558364868164,0.11154545843601227,-0.10772084444761276,-0.12330156564712524,-0.035979416221380234,-0.0007176804356276989,-0.13525599241256714,-0.13734576106071472,-0.11950699985027313,-0.1034228727221489,-0.1846916228532791,-0.17142824828624725,0.12071732431650162,-0.14067287743091583,0.13474798202514648,-0.14108353853225708,0.0034201357048004866,-0.012656887993216515,0.105462945997715,0.18862877786159515,0.14138202369213104,0.19787578284740448,0.03895953670144081,-0.09976888447999954,0.045124590396881104,0.1285288780927658,0.07743792235851288,-0.10031016170978546,-0.014944697730243206,0.1245017796754837,-0.11753293871879578,-0.020143436267971992,-0.09161777794361115,0.19662044942378998,0.12084448337554932,0.022537266835570335,0.19927099347114563,-0.05664271488785744,-0.08767200261354446,-0.024134138599038124,0.12037849426269531,-0.18817554414272308,-0.07497160136699677,-0.10524637997150421,-0.18975555896759033,-0.05092647671699524,-0.017659513279795647,0.013374025002121925,-0.19790923595428467,0.014274835586547852,0.05421610549092293,0.14386963844299316,0.14952467381954193,0.17698906362056732,-0.17732085287570953,-0.11284180730581284,0.05674770474433899,-0.08714982122182846,-0.008537836372852325,-0.019033323973417282,-0.06295321881771088,0.1321113109588623,0.18322516977787018,-0.1698819100856781,0.10394208878278732,-0.05166294425725937,-0.07082468271255493,-0.054615579545497894,0.17510637640953064,0.04507146775722504,-0.18918626010417938,-0.00849969033151865,0.1848127692937851,0.10597135126590729,-0.16763943433761597,0.15159840881824493,-0.14792682230472565,-0.19985605776309967,0.13564924895763397,0.059071894735097885,-0.07587293535470963,-0.11861148476600647,-0.01364731602370739,-0.15353716909885406,-0.15771186351776123,-0.11427692323923111,0.12132329493761063,-0.158989816904068,-0.06060098111629486,-0.04023980349302292,0.14241713285446167,-0.03464523330330849,0.0798054188489914,0.04347754642367363,0.12848643958568573,0.06421632319688797,0.11778672784566879,0.16639654338359833,-0.0045136758126318455,0.02953639067709446,0.11197219789028168,-0.030244387686252594,-0.08208609372377396,-0.054463889449834824,-0.128147155046463,-0.12436860799789429,0.13645943999290466,-0.02518894523382187,0.1430094838142395,-0.1500660628080368,-0.031225459650158882,-0.047654006630182266,-0.026413993909955025,-0.17595414817333221,0.0704229325056076,0.06394443660974503,-0.08518150448799133,-0.17278723418712616,0.10814882814884186,0.08746859431266785,-0.08006628602743149,0.09219089895486832,-0.005255339201539755,-0.09907853603363037,-0.0798318162560463,0.16005229949951172,-0.02832380309700966,-0.0663645789027214,0.04031608626246452,0.0678819864988327,-0.09244129806756973,0.07087373733520508,0.18000636994838715,0.15854749083518982,-0.11761097609996796,-0.09338623285293579,-0.14822424948215485,0.1197124794125557,-0.18528814613819122,0.16529186069965363,0.05726443603634834,0.07915325462818146,0.0610615573823452,-0.15622925758361816,0.08831272274255753,-0.013997277244925499,0.14265500009059906,-0.08419571071863174,-0.1280413269996643,-0.03097367100417614,0.15934771299362183,0.07757831364870071,0.1623266041278839,0.017726749181747437,0.16146834194660187,0.1097833439707756,-0.11044397205114365,0.06028148531913757,-0.10986588895320892,-0.041687965393066406,-0.05042743682861328,-0.03766506537795067,-0.11976823955774307,-0.015291922725737095,-0.14160965383052826,-0.08845757693052292,-0.13436049222946167,-0.15097855031490326,0.19182786345481873,0.13947559893131256,0.15777423977851868,-0.0685131847858429,-0.13137857615947723,-0.06864308565855026,-0.014350682497024536,0.011415703222155571,0.034486886113882065,0.07405370473861694,-0.18884772062301636,0.18010717630386353,-0.025582903996109962,0.06866232305765152,-0.1911093145608902,-0.025571690872311592,-0.16780832409858704,-0.13272494077682495,-0.1617545783519745,-0.1724591702222824,-0.02849915623664856,-0.02965785749256611,-0.06432240456342697,0.1771652102470398,-0.17568732798099518,-0.08433490991592407,-0.013567009009420872,-0.04622232913970947,0.1335974633693695,-0.18887168169021606,0.10474734753370285,0.09613008052110672,-0.04377669841051102,-0.0806097686290741,-0.11578206717967987,0.032731760293245316,-0.004228407982736826,-0.16577653586864471,-0.04505304992198944,0.011894223280251026,0.017935747280716896,-0.1342318058013916,0.19401241838932037,0.14824748039245605,0.056828174740076065,-0.024117181077599525,-0.1754319667816162,-0.1639036238193512,0.049865592271089554,0.13726365566253662,0.18021157383918762,0.10163473337888718,-0.03271115571260452,-0.06007981672883034,0.044856294989585876,0.07028710097074509,-0.13743966817855835,-0.06005125865340233,0.05920685827732086,-0.16870002448558807,0.1965341717004776,0.08395497500896454,0.07476034015417099,-0.08570822328329086,0.12775255739688873,0.11830102652311325,0.14870789647102356,0.022808628156781197,0.1972295641899109,-0.191115602850914,-0.19467858970165253,0.1353396326303482,-0.17847596108913422,-0.022360580042004585,0.07849053293466568,0.0871138796210289,0.13802795112133026,0.19492943584918976,-0.04303954914212227,-0.029053546488285065,-0.1927870213985443,0.16472718119621277,0.04782135412096977,-0.08218429982662201,0.16341058909893036,0.10996758192777634,-0.16696737706661224,-0.016322694718837738,-0.11668194085359573,0.19261182844638824,-0.08530747890472412,-0.08432035893201828,-0.054586153477430344,0.04065864160656929,0.08995498716831207,0.05690472200512886,-0.17903757095336914,-0.15253807604312897,0.06846851110458374,0.10395004600286484,-0.008361097425222397,-0.05665053799748421,0.06159651279449463,0.0923127755522728,0.1097775399684906,0.049518484622240067,-0.06801991164684296,-0.09487564116716385,0.19199061393737793,-0.09655752032995224,0.1360515058040619,0.05230842903256416,-0.14392490684986115,-0.17589212954044342,-0.014508248306810856,-0.041037123650312424,0.08838532865047455,0.0821973979473114,0.03678935021162033,0.15156620740890503,-0.05388154089450836,-0.013160905800759792,-0.10477032512426376,-0.05900387465953827,0.006208224222064018,-0.14365582168102264,0.13412992656230927,0.0987529456615448,0.05049051344394684,-0.07337382435798645,0.008165905252099037,0.05508086457848549,-0.10805396735668182,0.17922140657901764,0.07228776812553406,-0.12425267696380615,0.19765841960906982,-0.11001841723918915,0.14099545776844025,-0.17330113053321838,0.1845063865184784,-0.18710017204284668,0.14351534843444824,-0.014322821982204914,-0.08266282826662064,0.07992222905158997,-0.1839490383863449,-0.0016069040866568685,0.10583370923995972,-0.007439767010509968,-0.08057117462158203,-0.1654914766550064,-0.1896938681602478,0.18296627700328827,0.1737617552280426,-0.03969576582312584,0.11335359513759613,0.16296984255313873,0.16906708478927612,0.02457568794488907,0.06261873990297318],[0.10281890630722046,-0.011006447486579418,-0.03126421943306923,0.061218105256557465,-0.0963905081152916,-0.005132576450705528,-0.13096365332603455,0.019732611253857613,-0.0037045066710561514,0.0022402515169233084,-0.14886675775051117,-0.1612701117992401,0.19385436177253723,0.10559681802988052,0.13914045691490173,-0.1588258594274521,0.08111187815666199,0.10798954963684082,0.09243444353342056,0.09876164048910141,-0.11550139635801315,0.009033682756125927,0.15393325686454773,-0.15520532429218292,-0.1296103149652481,-0.16318286955356598,-0.12806369364261627,0.09249784797430038,0.020620016381144524,0.12663277983665466,-0.04366837441921234,-0.10649373382329941,0.1316906213760376,-0.14782153069972992,-0.13790875673294067,0.11823195219039917,-0.0484512560069561,-0.14924356341362,0.04091309756040573,-0.09141778945922852,0.17252694070339203,0.19581328332424164,-0.050883229821920395,0.0020276380237191916,0.08171865344047546,-0.049476321786642075,0.06007308512926102,-0.19599439203739166,0.17930381000041962,0.11009927839040756,0.1912468522787094,-0.10030093044042587,-0.18904529511928558,0.17945927381515503,-0.08063282072544098,0.05989394709467888,0.11712399125099182,-0.04455812647938728,0.13230927288532257,0.14305703341960907,0.12720155715942383,0.07208557426929474,-0.01637582667171955,-0.18998800218105316,0.04629959911108017,-0.16675594449043274,-0.0308322012424469,-0.060483355075120926,0.03382347151637077,-0.16595995426177979,0.1708354651927948,-0.07626596838235855,-0.19873906672000885,0.058327674865722656,-0.14650504291057587,0.01355142891407013,0.003400237997993827,-0.03269073739647865,-0.1774064302444458,-0.09843569248914719,-0.16118782758712769,-0.08646941184997559,0.020805830135941505,0.11111433804035187,0.15083163976669312,-0.04587968438863754,-0.022045783698558807,0.02065771259367466,0.15647393465042114,-0.06910111755132675,0.0034097295720130205,0.01044027041643858,0.04693678021430969,-0.12994791567325592,0.0004111861053388566,-0.09663062542676926,-0.08703815191984177,-0.07097052037715912,0.083671934902668,0.03422872722148895,-0.03881232813000679,0.14786429703235626,-0.012355338782072067,-0.08765731751918793,-0.15110032260417938,-0.1774628907442093,-0.14292249083518982,-0.08908579498529434,-0.1621759682893753,-0.06748838722705841,0.1570998579263687,-0.01455303281545639,0.08775091916322708,-0.027237147092819214,0.10049205273389816,-0.12295851856470108,0.0888977199792862,0.1318286806344986,0.07768639922142029,-0.011251205578446388,-0.015407717786729336,0.024106791242957115,0.047804899513721466,0.09383042901754379,0.018882736563682556,-0.1680956780910492,0.0827520489692688,0.13060562312602997,0.0963183343410492,-0.05405544117093086,0.16283535957336426,0.000005827344921272015,0.03931473568081856,0.10537299513816833,0.10711873322725296,-0.029586724936962128,-0.03913360461592674,-0.09827528893947601,-0.06573384255170822,-0.015097790397703648,0.06540105491876602,0.020429294556379318,-0.08700072765350342,-0.14618663489818573,0.007089998107403517,0.036556635051965714,-0.18149293959140778,-0.1679784506559372,0.07425379008054733,-0.14507557451725006,-0.18425405025482178,-0.11097154021263123,-0.16652554273605347,-0.14448070526123047,-0.0845247209072113,0.16007187962532043,0.09993401169776917,-0.07366013526916504,0.016547078266739845,0.15651866793632507,-0.16904108226299286,0.009972961619496346,-0.09029341489076614,-0.09145528823137283,0.19427832961082458,-0.054067760705947876,0.13117432594299316,-0.03716025874018669,-0.13112308084964752,0.07880096137523651,0.06824604421854019,0.1170382872223854,-0.10819219052791595,0.10109282284975052,-0.009268425405025482,-0.15098673105239868,0.05280360206961632,-0.17434512078762054,0.006871615070849657,0.01194181852042675,-0.1578449010848999,0.04565276950597763,0.1941894292831421,-0.02439587563276291,-0.0014983677538111806,-0.18902035057544708,0.021573731675744057,-0.05432675778865814,0.019683998078107834,-0.14381228387355804,-0.02368193306028843,0.17683182656764984,0.02956543304026127,0.00858964491635561,0.15823908150196075,0.01039551105350256,0.016779132187366486,-0.03720271959900856,-0.14107538759708405,0.11397283524274826,-0.1680101901292801,0.11091762036085129,-0.05475575476884842,-0.04903144761919975,-0.18459998071193695,0.02620253525674343,-0.03035343810915947,0.05523171275854111,-0.19356957077980042,0.026867303997278214,-0.07327896356582642,0.18110401928424835,-0.0927124097943306,-0.0475592203438282,-0.13165073096752167,-0.032340116798877716,-0.11400005966424942,0.175239697098732,0.07292184233665466,-0.1713671088218689,0.0570869967341423,0.1855485588312149,-0.04777667671442032,0.04380250349640846,0.13263455033302307,0.0033910651691257954,0.067894347012043,-0.12996593117713928,-0.024238063022494316,0.08997339755296707,-0.06259314715862274,0.13571283221244812,0.19081518054008484,0.15206144750118256,0.1957170069217682,0.032094456255435944,-0.007912632077932358,0.06138679012656212,0.08201902359724045,0.15280747413635254,0.1839996576309204,0.03578479215502739,0.18915970623493195,0.008735986426472664,-0.1443764716386795,0.1472858190536499,0.006425022147595882,0.13194823265075684,-0.024736588820815086,0.11485716700553894,-0.16204345226287842,0.11003246903419495,0.153156578540802,-0.04004105180501938,-0.08850354701280594,0.03640264272689819,0.12873873114585876,-0.08140863478183746,-0.12814880907535553,0.034082602709531784,-0.1912454217672348,-0.047037117183208466,0.14296855032444,0.06079869717359543,-0.19863741099834442,0.12496346980333328,-0.09629413485527039,-0.16053463518619537,0.07704143226146698,-0.004024799447506666,-0.06046401709318161,-0.14152199029922485,-0.1817677766084671,0.07825833559036255,0.02155223861336708,-0.06598690152168274,0.015071466565132141,-0.168198361992836,0.060150936245918274,0.13867594301700592,0.005294132046401501,0.1939459592103958,0.11935068666934967,-0.020557105541229248,0.1766251176595688,-0.174281045794487,0.10275083035230637,0.15811611711978912,0.06444542855024338,0.02584022842347622,0.15004949271678925,-0.03880605101585388,0.013384630903601646,0.11279883235692978,-0.17667582631111145,0.05871731787919998,0.08505373448133469,0.026487184688448906,0.09723100811243057,-0.025889145210385323,-0.08752517402172089,0.03090003691613674,-0.03380533307790756,0.15129676461219788,-0.05649586766958237,0.047572482377290726,0.11953797191381454,0.026942718774080276,-0.056577444076538086,-0.16671663522720337,0.18922413885593414,0.17071279883384705,-0.17220540344715118,-0.019436189904808998,-0.113309845328331,-0.10131561756134033,0.0810110867023468,0.1838689148426056,-0.18940004706382751,0.09103156626224518,0.17924945056438446,0.1584831029176712,0.019999565556645393,-0.1226702556014061,-0.15982824563980103,-0.07202136516571045,-0.047160618007183075,0.12160471081733704,0.03127361461520195,-0.17600645124912262,0.13828665018081665,-0.1475057601928711,-0.0288282111287117,-0.093408964574337,-0.12084169685840607,-0.0986204445362091,0.028679555281996727,0.08347780257463455,0.18653176724910736,0.16681450605392456,-0.048525214195251465,-0.020514871925115585,0.09726041555404663,-0.11808452755212784,0.09698287397623062,-0.018108321353793144,-0.00009523825428914279,-0.1397087424993515,-0.03526372089982033,-0.17144902050495148,-0.016024110838770866,0.12015379220247269,0.07970962673425674,-0.013485954143106937,0.10190730541944504,0.03928390517830849,-0.10108183324337006,-0.1947079300880432,-0.07814925163984299,-0.10945365577936172,0.04859761893749237,0.092250756919384,-0.19982919096946716,-0.07591696083545685,0.19169820845127106,0.07178068906068802,0.0471578985452652,-0.09664175659418106,-0.07251472771167755,0.19642090797424316,-0.07268409430980682,0.0796317607164383,-0.11111868917942047,0.15707643330097198,0.19830475747585297,-0.07626985013484955,-0.0751158744096756,-0.08217371255159378,-0.059440549463033676,-0.10326062887907028,0.03959231451153755,-0.19141818583011627,-0.10082675516605377,0.010349633172154427,0.03824906796216965,0.1202145516872406,0.11120340973138809,-0.15860214829444885,-0.012773673050105572,-0.0659336969256401,0.02507217787206173,-0.1476106345653534,0.005378446541726589,-0.07829466462135315,-0.06359884142875671,-0.11370895802974701,-0.08461913466453552,0.13513244688510895,-0.1558770090341568,0.04466407001018524,-0.08362361043691635,0.15929394960403442,-0.05964699015021324,0.10213525593280792,-0.14738570153713226,0.0448286272585392,-0.05524440482258797,-0.041373033076524734,-0.06352618336677551,0.041923075914382935,-0.041165463626384735,0.10914675146341324,-0.11954352259635925,-0.07777177542448044,0.035053107887506485,-0.19428621232509613,0.11225339770317078,0.15670190751552582,0.10119318217039108,0.02345193177461624,-0.06425099074840546,-0.11295133084058762,0.0322277657687664,0.03543001040816307,-0.13950638473033905,0.0032912823371589184,-0.08823154866695404,0.06995155662298203,-0.08906227350234985,-0.09603807330131531,-0.12516993284225464,0.0035166232846677303,0.1951589733362198,-0.12012656778097153,0.10098576545715332,0.020207714289426804,0.10335543751716614,0.14715765416622162,-0.11830276995897293,0.0753941461443901,0.19957320392131805,0.18199008703231812,0.12283200025558472,-0.06428790092468262,0.07395921647548676,-0.16932140290737152,0.0623207613825798,-0.14248740673065186,-0.019872477278113365,0.050971031188964844,-0.13304957747459412,0.09430528432130814,0.15665562450885773,-0.023149529471993446,0.0605994313955307,-0.0952380821108818,0.17679639160633087,-0.1915031522512436,-0.006289503071457148,-0.011663626879453659,0.13221964240074158,-0.19751273095607758,-0.06652126461267471,0.016247080639004707,0.13439908623695374,-0.07261037826538086,0.165318563580513,0.027833040803670883,0.12770646810531616,0.049513332545757294,0.157736137509346,-0.05838393419981003,-0.005993186961859465,0.049900613725185394,-0.08522851020097733,-0.10790238529443741,0.14003680646419525,0.030971691012382507,-0.03383931517601013,-0.13424573838710785,-0.014846553094685078,-0.09346046298742294,-0.18260960280895233,-0.183285653591156,-0.15302824974060059,0.1055414155125618,0.10329408943653107,0.11081594228744507,-0.1848236471414566,0.12886710464954376,0.10403399914503098,-0.16979995369911194,-0.07076747715473175,0.15026843547821045,-0.042905744165182114,0.11334802210330963,0.11089927703142166,-0.14858782291412354,0.004172534681856632,0.11447151005268097,-0.061754174530506134,0.14906542003154755,0.10316392034292221,-0.14861683547496796,0.17681145668029785,-0.09684769809246063,0.09277963638305664,0.04396335408091545,-0.19986748695373535,-0.16084134578704834,-0.05972803756594658,-0.021789371967315674,0.09696581959724426,-0.04549700394272804,0.06621043384075165,-0.09568507224321365,0.017608031630516052,0.1531292051076889,-0.11207674443721771,-0.04715029150247574,-0.05506084859371185,-0.019512256607413292,-0.14905305206775665,-0.09376069903373718,0.16352622210979462,0.1888473629951477,-0.18001842498779297,0.14006724953651428,-0.02955876663327217,0.12937819957733154,0.14558745920658112,-0.05798729136586189,0.06787596642971039,-0.037566013634204865,-0.19191618263721466,-0.10303710401058197,-0.026891596615314484,0.1649022400379181,-0.13206511735916138,-0.04243694990873337,-0.0881732925772667,-0.03646891936659813,0.0920821949839592,-0.03217555582523346,0.14998440444469452,0.1228104829788208,0.19671949744224548,0.054523829370737076,-0.021011535078287125,0.06949498504400253,0.17138615250587463,-0.15420740842819214,0.037248820066452026,-0.1626516580581665,-0.174163356423378,0.002688623731955886,-0.01444116048514843,0.015966439619660378,0.09633823484182358,-0.10141277313232422,-0.07388603687286377,0.043521687388420105,-0.14040355384349823,0.18879641592502594,0.01740390434861183,0.05275510996580124,0.14395011961460114,0.07946871966123581,0.18526262044906616,0.192667618393898,0.10809633880853653,-0.1186005100607872,0.03949286416172981,-0.16151492297649384,0.14693047106266022,-0.03678204119205475,-0.18034110963344574,0.020000645890831947,0.14677631855010986,0.030050456523895264,-0.16230620443820953,-0.12682077288627625,-0.18073591589927673,0.04928778484463692,-0.1749122440814972,-0.09760976582765579,0.09016325324773788,0.08323527872562408,0.03246767818927765,-0.13499411940574646,-0.19493664801120758,0.03140484541654587,-0.05094769597053528,-0.1562110036611557,-0.16922377049922943,-0.08223098516464233,-0.13410723209381104,-0.18557922542095184,-0.0014859504299238324,-0.045610710978507996,-0.05094875022768974,0.15230540931224823,-0.15450745820999146,-0.012747547589242458,0.03501744195818901,0.1523975431919098,-0.10208991914987564,0.13029757142066956,-0.14624716341495514,-0.007366249803453684,-0.10736821591854095,0.0550595223903656,-0.0826534852385521,-0.023069173097610474,0.014381823129951954,-0.09420701116323471,-0.0906727984547615,-0.011920332908630371,-0.12510018050670624,0.03941578045487404,0.0014698606682941318,-0.154463529586792,-0.12125755846500397,0.17309334874153137,0.14800457656383514,0.1150592789053917,0.07937463372945786,0.16511619091033936,0.02966979891061783,-0.15022476017475128,0.0884377583861351,0.18808652460575104,-0.040460627526044846,0.14772416651248932,-0.08959841728210449,0.011654620990157127,-0.17458119988441467],[-0.01592404395341873,0.0018803068669512868,-0.03080570325255394,0.12622763216495514,-0.00643569091334939,-0.19456803798675537,-0.1687382012605667,0.12335404753684998,-0.15697389841079712,0.020696919411420822,-0.01989622600376606,-0.17124977707862854,-0.1744385063648224,-0.17853091657161713,0.021724632009863853,-0.13207770884037018,0.11704099178314209,-0.07778763771057129,-0.11546938866376877,-0.05536345764994621,0.08726558089256287,-0.13682891428470612,-0.19560658931732178,0.17978239059448242,0.05086332932114601,-0.09937181323766708,-0.07328241318464279,0.19517554342746735,-0.06433162838220596,-0.14833152294158936,0.1461617350578308,-0.10931583493947983,0.00728151248767972,0.13852883875370026,-0.08153904229402542,0.1309535652399063,0.030324460938572884,-0.08064479380846024,0.02670213207602501,-0.0940026193857193,-0.04647428169846535,0.03956197202205658,0.024834224954247475,-0.0008062784909270704,0.17346306145191193,0.13130031526088715,0.12669897079467773,0.054858334362506866,0.055902328342199326,0.08104980736970901,-0.16543976962566376,0.00705152191221714,0.05357099324464798,-0.14383506774902344,-0.15505781769752502,-0.15417394042015076,-0.04353993386030197,0.08763200789690018,0.020431390032172203,-0.04762910306453705,0.006038161925971508,-0.05335424840450287,0.10697946697473526,0.1829647719860077,-0.10868106037378311,-0.0035304503981024027,-0.09314413368701935,-0.01391585823148489,-0.06446001678705215,0.15752029418945312,-0.17664214968681335,0.1664508879184723,-0.11873303353786469,0.007560730446130037,0.12215645611286163,-0.1504359096288681,0.07001788914203644,-0.17897561192512512,-0.12811653316020966,0.08461321145296097,0.13971452414989471,-0.1135663166642189,-0.1805218756198883,0.021512381732463837,-0.06326094269752502,-0.05075819417834282,0.020975813269615173,-0.07774340361356735,0.17810840904712677,0.025026701390743256,-0.01189479324966669,-0.16802692413330078,0.1281413435935974,-0.17778143286705017,0.03429500013589859,-0.16039641201496124,-0.021956168115139008,0.006653066724538803,0.15710492432117462,0.16316822171211243,-0.1670299768447876,-0.17519985139369965,-0.16513510048389435,-0.04753410816192627,-0.18462859094142914,-0.020401377230882645,0.13624471426010132,-0.18502622842788696,0.18655215203762054,0.06764276325702667,0.17764952778816223,-0.16500766575336456,0.156815767288208,-0.01387326605618,0.09076166898012161,-0.19351902604103088,0.09111805260181427,0.15883107483386993,0.12566907703876495,-0.0032601698767393827,-0.1373833864927292,-0.18721282482147217,-0.1525571644306183,-0.09228099137544632,0.19754083454608917,0.1890459805727005,0.15350541472434998,-0.1647401750087738,-0.02929193526506424,0.09887957572937012,-0.09612318873405457,-0.12735648453235626,0.18964385986328125,0.19361282885074615,0.11483215540647507,-0.0023333884309977293,0.10387599468231201,0.10241115093231201,0.10812629759311676,-0.1772109419107437,-0.09890177100896835,0.09422469884157181,-0.14085660874843597,0.15719325840473175,-0.159751296043396,0.09508700668811798,-0.03027579002082348,-0.0010218294337391853,0.13041695952415466,-0.10206777602434158,0.08185211569070816,0.014216954819858074,-0.18524950742721558,-0.057143934071063995,0.08323881775140762,0.03394068777561188,-0.0482843741774559,-0.1456926465034485,-0.15714453160762787,0.004059059079736471,0.06438937783241272,-0.011068915016949177,-0.09920484572649002,-0.024672018364071846,0.072843536734581,0.1601954996585846,-0.15430453419685364,0.14682216942310333,-0.08525712043046951,0.11118504405021667,0.175967738032341,0.005659279879182577,0.006455705966800451,-0.1853763610124588,0.1720581352710724,-0.032717201858758926,0.16666877269744873,-0.10667052119970322,0.09647262096405029,0.18105094134807587,0.16094645857810974,-0.17439937591552734,0.19284787774085999,0.003313079010695219,0.1659555286169052,0.02945570833981037,0.17723238468170166,-0.19310928881168365,-0.17932310700416565,-0.15511631965637207,-0.09113491326570511,-0.1622287631034851,-0.03990286588668823,0.16996634006500244,-0.16481882333755493,0.17468935251235962,0.19601945579051971,0.08867248147726059,0.05825499817728996,0.17304305732250214,-0.08339960128068924,0.022341353818774223,0.10094337910413742,0.19786956906318665,-0.034677501767873764,0.14360862970352173,-0.19163233041763306,-0.030798444524407387,0.19598892331123352,0.008168204687535763,0.05829853564500809,0.15454179048538208,0.03921279311180115,0.1437840312719345,-0.00984414853155613,-0.09464120864868164,-0.0575304813683033,0.16388054192066193,0.021461190655827522,0.12094343453645706,-0.07207383960485458,-0.17950555682182312,0.1305057406425476,-0.019301334396004677,-0.1773822009563446,0.12641699612140656,0.16173818707466125,0.06308367848396301,-0.09680504351854324,0.15343113243579865,0.03376796841621399,-0.014544629491865635,0.15364260971546173,-0.11359936743974686,0.07477466017007828,0.14487454295158386,-0.12513883411884308,-0.006276725325733423,-0.04559064283967018,0.024994878098368645,0.038460325449705124,0.016702109947800636,-0.06453832238912582,0.1552022099494934,0.09725683927536011,0.13108061254024506,0.11159895360469818,0.1883866935968399,-0.05975025147199631,-0.038488827645778656,0.197840616106987,-0.08260437101125717,-0.10989215224981308,-0.0040047140792012215,-0.0871819257736206,-0.042889151722192764,0.1140618771314621,0.14722947776317596,0.11249269545078278,0.09854462742805481,0.004484938457608223,0.16624431312084198,-0.06273778527975082,-0.17549854516983032,0.036218300461769104,-0.09128956496715546,0.05155050382018089,0.10369377583265305,0.1964963674545288,0.009765373542904854,-0.19242660701274872,0.14840638637542725,-0.008616131730377674,0.0952979326248169,-0.048202261328697205,0.09011899679899216,0.12362220138311386,-0.14747680723667145,0.14885783195495605,-0.18825121223926544,-0.032121624797582626,0.11219605058431625,0.10925237089395523,-0.07606986165046692,0.18531806766986847,-0.02843848057091236,0.06032592058181763,0.14101915061473846,-0.16662266850471497,0.11157083511352539,-0.07629061490297318,-0.026172546669840813,0.12045001983642578,0.13566365838050842,-0.021824436262249947,0.001957900356501341,-0.02177896723151207,0.06586147844791412,-0.15025989711284637,-0.01944356970489025,0.1411902755498886,0.05909018591046333,0.036101870238780975,0.18522872030735016,-0.012936778366565704,0.11612648516893387,0.16451464593410492,-0.15573066473007202,0.10414210706949234,0.10334979742765427,-0.10062631219625473,0.13179761171340942,0.11766467988491058,-0.013376789167523384,-0.09360700100660324,0.1508965939283371,-0.04216489568352699,0.06682521104812622,0.04193193092942238,-0.11908841133117676,0.06949754059314728,-0.05740905925631523,-0.004979837220162153,0.09632623940706253,0.04703151434659958,-0.11323995143175125,-0.0211015772074461,0.09544754028320312,-0.08549515902996063,0.03315874934196472,0.004154175519943237,-0.009914044290781021,0.19072389602661133,-0.04707689955830574,0.005946545396000147,0.19539505243301392,0.12604130804538727,-0.1792372614145279,-0.14643444120883942,0.16780981421470642,-0.14890876412391663,0.16983681917190552,-0.09394276142120361,0.1274125874042511,0.07198816537857056,-0.0351044125854969,-0.02323848195374012,0.13744796812534332,-0.03651329129934311,0.11870801448822021,0.1658628135919571,-0.0678311139345169,-0.05111775919795036,0.13311900198459625,-0.09758339822292328,-0.08364816009998322,0.1964009404182434,0.0002687558298930526,-0.1803177148103714,0.07231970131397247,0.03274303674697876,0.07189856469631195,-0.18050460517406464,-0.1915561407804489,0.1815091073513031,0.03126832842826843,0.04420013353228569,-0.0498335175216198,0.08390939235687256,-0.07275645434856415,-0.020680351182818413,-0.10801186412572861,0.17110386490821838,-0.07071435451507568,-0.009926472790539265,0.004984648432582617,-0.11336012929677963,-0.10560343414545059,0.06988323479890823,-0.01591365598142147,-0.1070837527513504,-0.11517059803009033,-0.1814993917942047,-0.033891722559928894,-0.00885896198451519,0.09036653488874435,-0.0426214374601841,0.08168944716453552,-0.1314825564622879,0.08444047719240189,0.15096065402030945,-0.1287693977355957,-0.17756305634975433,0.04074467346072197,0.06066909804940224,0.1258697211742401,0.08925103396177292,0.15109513700008392,0.0934048593044281,0.0048520490527153015,0.03205025941133499,-0.16099964082241058,0.16252020001411438,0.12413164228200912,-0.10217446833848953,0.07273794710636139,-0.18134252727031708,-0.14298751950263977,0.019909793511033058,-0.011707315221428871,-0.1703740656375885,-0.0302658062428236,-0.16285379230976105,0.15718352794647217,0.026514310389757156,0.11207707971334457,-0.1860664188861847,0.06110956147313118,0.1054186075925827,0.03896326944231987,0.16608518362045288,0.0908629298210144,-0.13838987052440643,-0.02163400873541832,-0.15478475391864777,0.14291594922542572,0.12538930773735046,-0.014742255210876465,0.07522059231996536,0.0024406565353274345,0.0017843098612502217,0.16261805593967438,0.04515347257256508,-0.06629566848278046,0.08761784434318542,-0.1644631326198578,0.16850663721561432,-0.15978918969631195,-0.030969828367233276,-0.017235100269317627,0.12174200266599655,0.05384812876582146,-0.07365177571773529,0.00028974039014428854,-0.0011573941446840763,-0.09541250765323639,0.062354881316423416,0.16282020509243011,0.15188993513584137,0.027166394516825676,0.08927615731954575,-0.03394383192062378,0.19079042971134186,0.15874601900577545,0.12066182494163513,0.11795448511838913,-0.025817470625042915,-0.1134132593870163,0.0983574315905571,0.0016575352055951953,-0.077183797955513,-0.10513921082019806,-0.10149887204170227,-0.11044257879257202,-0.13898195326328278,0.1043131947517395,0.10303565859794617,0.1596815586090088,0.019628986716270447,0.050319138914346695,0.02080872654914856,0.18960413336753845,0.16372278332710266,-0.13849176466464996,0.08045413345098495,-0.08747397363185883,0.15178027749061584,0.1270805150270462,-0.08295180648565292,-0.019846824929118156,-0.11760883033275604,0.04321879521012306,-0.09935980290174484,-0.014182249084115028,0.08472001552581787,-0.13718967139720917,-0.02233734354376793,-0.15389083325862885,0.16240499913692474,0.05042335391044617,0.07647328078746796,-0.17347344756126404,0.031173143535852432,-0.06603990495204926,-0.15014347434043884,0.11192548274993896,0.078242227435112,0.13046351075172424,0.13300742208957672,-0.11330389976501465,0.11924096196889877,0.04467937350273132,0.1743028461933136,-0.04612350836396217,-0.005603936035186052,-0.15343455970287323,-0.18275903165340424,-0.14346608519554138,-0.1753932386636734,-0.18671144545078278,0.10506633669137955,-0.11277499794960022,0.0807504802942276,-0.05652156472206116,-0.03680412843823433,-0.03397210314869881,0.08669938892126083,0.12635807693004608,0.06514133512973785,0.011053466238081455,0.07500286400318146,0.19474352896213531,-0.09769239276647568,-0.06720887869596481,-0.017864208668470383,-0.15180405974388123,0.08775295317173004,0.0575626865029335,-0.07513183355331421,-0.10410187393426895,-0.02692239359021187,0.04168180376291275,-0.16670456528663635,-0.055245742201805115,-0.18491825461387634,0.1118428036570549,-0.051102422177791595,0.1322290599346161,0.11724935472011566,-0.15420976281166077,0.12078862637281418,0.13467487692832947,-0.14410918951034546,0.11405173689126968,0.1900240033864975,-0.005471501499414444,0.06322871148586273,-0.12567386031150818,0.12390366941690445,0.1817626953125,-0.007321726996451616,-0.01178288646042347,-0.06072834134101868,-0.11069578677415848,-0.07879113405942917,-0.048541683703660965,-0.0002690161345526576,0.19586433470249176,-0.18249733746051788,0.15435023605823517,-0.02161390893161297,-0.03976321220397949,-0.0006943026091903448,0.13676516711711884,0.01332584023475647,0.14881666004657745,0.028592146933078766,-0.10837233066558838,-0.023315006867051125,-0.11898701637983322,0.07759857922792435,0.012781240046024323,0.019685683771967888,0.06242698058485985,-0.18803070485591888,-0.14803488552570343,-0.056706976145505905,0.11819255352020264,0.015825705602765083,-0.07970690727233887,-0.1445600539445877,0.12866844236850739,-0.10154005140066147,0.11382308602333069,-0.08199602365493774,0.1298299878835678,0.14901775121688843,0.13644927740097046,-0.1670856922864914,-0.12360768765211105,-0.021748898550868034,-0.09239111095666885,0.12184160947799683,-0.017654137685894966,0.15062403678894043,-0.12691698968410492,0.08951646834611893,0.17690330743789673,0.15590456128120422,0.09362948685884476,0.1682785302400589,-0.13610661029815674,-0.07043135166168213,0.13091810047626495,0.013814451172947884,0.15347951650619507,-0.01761450245976448,0.010781005024909973,0.1252250224351883,0.08163623511791229,-0.14457577466964722,-0.09137478470802307,0.034032199531793594,-0.13751375675201416,-0.12355635315179825,0.1195102110505104,-0.13469626009464264,-0.10459266602993011,-0.03935277834534645,0.030909527093172073,-0.12526088953018188,-0.19913731515407562,-0.04379461705684662,-0.0666038915514946,0.03972061723470688,0.17418204247951508,-0.17501333355903625,0.12479268014431,0.13027368485927582,0.11784324049949646,-0.0009476945851929486,0.17385536432266235,0.1851102113723755,0.060252368450164795,0.19302476942539215,0.12259071320295334,-0.03087589144706726],[-0.07736481726169586,0.09224513173103333,-0.13144464790821075,-0.10410501062870026,0.13923762738704681,-0.14603377878665924,-0.09535075724124908,0.032231900840997696,-0.01649429090321064,-0.08184703439474106,-0.07919972389936447,0.0023414865136146545,-0.16639700531959534,0.13055060803890228,-0.1698509305715561,-0.16164642572402954,-0.08853686600923538,0.1075534000992775,-0.03998861834406853,-0.12974874675273895,-0.08102917671203613,-0.08745183050632477,0.0024820889811962843,-0.16813760995864868,-0.14025408029556274,-0.11932601779699326,-0.03738093376159668,-0.1402696818113327,-0.08534640818834305,-0.016086526215076447,0.003046272322535515,0.06319119036197662,-0.16316793859004974,-0.008328543975949287,0.009469334036111832,0.09665147215127945,-0.07612898200750351,0.07108394801616669,0.11136351525783539,-0.11352193355560303,0.06722785532474518,0.1511276513338089,0.1367977410554886,0.1632198691368103,-0.1161126121878624,-0.017297474667429924,-0.1808769553899765,0.0012055858969688416,-0.19650866091251373,-0.15284192562103271,-0.1868872195482254,0.12545707821846008,-0.17592531442642212,0.0253321323543787,0.04027055576443672,0.03719332814216614,0.15349073708057404,-0.018656311556696892,0.1759321391582489,-0.04014630988240242,0.012200978584587574,-0.17935919761657715,-0.1535591334104538,0.10536932200193405,-0.019191041588783264,-0.06378781795501709,0.12182822078466415,0.1254357546567917,-0.03672335296869278,-0.1143171638250351,-0.19789455831050873,-0.06998584419488907,-0.018066732212901115,0.16273844242095947,0.07312093675136566,-0.1831127554178238,-0.12962929904460907,-0.11005054414272308,-0.1274791657924652,0.0980275496840477,0.10320919007062912,0.16305945813655853,0.1598523110151291,-0.012382916174829006,-0.09670314192771912,0.06054649129509926,0.12299975752830505,0.17272765934467316,-0.08361604809761047,-0.04367810860276222,0.18495577573776245,-0.07970047742128372,0.05845232680439949,0.11785832047462463,0.055767860263586044,-0.0916893407702446,0.17620070278644562,0.017942916601896286,-0.07575243711471558,0.14105278253555298,-0.1316930055618286,0.04682619124650955,-0.14766976237297058,-0.15512853860855103,0.03691224008798599,-0.15152646601200104,0.019533157348632812,0.044376567006111145,0.07906587421894073,0.013123178854584694,0.19682854413986206,0.1863832175731659,0.05565484240651131,0.13966386020183563,-0.019159791991114616,-0.16147151589393616,-0.1361476331949234,-0.11014417558908463,0.07750914990901947,0.03343549370765686,0.04583510011434555,-0.1273358017206192,0.03717241808772087,0.11450750380754471,-0.14957401156425476,0.11390607804059982,0.1634371280670166,-0.033035408705472946,-0.14776074886322021,-0.024387024343013763,0.1416962444782257,0.03235279396176338,0.030633434653282166,0.09268144518136978,0.10647091269493103,0.028769871219992638,-0.07545337080955505,0.08452454209327698,-0.08748990297317505,0.12104851007461548,0.0777415856719017,0.12889203429222107,-0.002509922254830599,-0.12289945781230927,-0.09845563769340515,0.03237370774149895,0.03141814470291138,-0.14794883131980896,0.15342789888381958,-0.09720355272293091,-0.12486960738897324,-0.0477273128926754,0.017472021281719208,-0.1785116195678711,-0.13939036428928375,0.10916026681661606,0.1391960233449936,-0.07681811600923538,0.05012565851211548,-0.15423746407032013,-0.051980260759592056,0.10867051035165787,0.035681966692209244,-0.11075470596551895,-0.17301532626152039,-0.045957788825035095,0.001966932089999318,-0.05320640653371811,0.15710793435573578,0.02458563819527626,-0.1626368910074234,0.12339607626199722,0.0930212214589119,-0.07484520971775055,0.07198399305343628,-0.182423934340477,0.00021544193441513926,-0.07454192638397217,0.13687244057655334,0.1325121968984604,-0.10949169099330902,-0.07425995916128159,-0.015000099316239357,0.07428914308547974,0.19334101676940918,-0.13142502307891846,-0.027015699073672295,-0.08398230373859406,0.0370686873793602,0.10693960636854172,-0.14075468480587006,-0.00537920743227005,-0.061325788497924805,0.07444217056035995,-0.16571445763111115,-0.10912462323904037,-0.06177561357617378,0.07869485765695572,0.033595968037843704,0.11648087203502655,-0.0878283903002739,-0.031036287546157837,0.03979567065834999,-0.04245693236589432,-0.03307501599192619,0.05851896479725838,-0.08014466613531113,-0.0568062886595726,-0.04878886044025421,0.1699456125497818,-0.04613938555121422,-0.18321050703525543,-0.185081347823143,0.09839566051959991,-0.04958668351173401,0.1580333262681961,-0.17878516018390656,0.14309364557266235,-0.08461859822273254,-0.11579281836748123,-0.17815625667572021,-0.14277857542037964,-0.10269779711961746,-0.09831121563911438,-0.110258087515831,-0.08514255285263062,-0.06169448792934418,0.09390972554683685,-0.12508822977542877,-0.028106022626161575,-0.059496741741895676,-0.1107480525970459,0.16515886783599854,0.0531570166349411,-0.0978003740310669,0.0099521828815341,-0.1504703164100647,0.07682066410779953,0.09246677160263062,-0.13940319418907166,0.14422927796840668,-0.1722736358642578,0.17651444673538208,0.12284627556800842,-0.03764203563332558,-0.1851441115140915,-0.16503408551216125,-0.12197452038526535,0.1980840563774109,-0.08205459266901016,-0.1358739137649536,0.1603688895702362,-0.06990338861942291,-0.06287146359682083,0.03852994367480278,0.08274251967668533,0.1228657215833664,0.18859943747520447,0.01831129752099514,0.18693096935749054,-0.024858996272087097,0.18845774233341217,-0.08872514963150024,0.004955589305609465,-0.171346053481102,-0.1739875078201294,0.11694067716598511,0.1778593212366104,-0.16651444137096405,-0.14775845408439636,0.1139228492975235,-0.19720835983753204,-0.16310925781726837,-0.16977131366729736,-0.16830897331237793,-0.03919132426381111,-0.18315185606479645,0.1030539870262146,-0.002835327759385109,-0.11498639732599258,-0.12358067184686661,-0.15917973220348358,0.052605051547288895,-0.06744704395532608,0.1456931233406067,0.15920250117778778,0.0673273578286171,-0.19642455875873566,-0.1126975268125534,0.1696271300315857,0.18406128883361816,0.12630952894687653,-0.019522078335285187,-0.0593024305999279,-0.03935650363564491,-0.11168641597032547,0.16376318037509918,0.084449402987957,-0.10952328890562057,0.19823428988456726,-0.11495364457368851,0.09727895259857178,0.18289339542388916,-0.1243128553032875,-0.07209464907646179,-0.18594032526016235,-0.02968090958893299,0.08332227915525436,0.09615571051836014,0.060968656092882156,-0.14950384199619293,-0.15688706934452057,-0.117276631295681,0.08299882709980011,0.010920954868197441,0.04996655881404877,0.12936146557331085,0.07252340018749237,-0.03415665030479431,-0.14384132623672485,-0.1411282867193222,-0.0877835601568222,-0.09205668419599533,0.005587411113083363,0.13643670082092285,0.061777304857969284,0.044507596641778946,-0.1698160618543625,-0.14299385249614716,-0.009832033887505531,0.14169847965240479,0.09165111184120178,-0.191320538520813,-0.1986715942621231,0.1431836485862732,-0.07518312335014343,0.03774900734424591,-0.036729730665683746,-0.13543272018432617,0.11655571311712265,-0.10962715744972229,-0.16763293743133545,0.050339486449956894,0.03773246705532074,0.1637098640203476,0.19230058789253235,0.0964188426733017,-0.07166656851768494,-0.17339453101158142,0.007070292253047228,0.08003231137990952,-0.004109559580683708,0.03474680706858635,-0.06698652356863022,-0.17106209695339203,0.039395470172166824,-0.11613874137401581,-0.17178770899772644,-0.09521958976984024,0.09473123401403427,-0.16204553842544556,0.14351239800453186,-0.03357941284775734,-0.09670272469520569,-0.1722595989704132,-0.05096282809972763,-0.18083351850509644,-0.03180631622672081,0.16896365582942963,0.06442566961050034,-0.07837209850549698,-0.1577090322971344,-0.061631303280591965,0.046330492943525314,-0.14677077531814575,0.1354869157075882,-0.15595746040344238,0.11017327755689621,0.03395992890000343,0.16585490107536316,-0.17771242558956146,0.11052098870277405,-0.0498364120721817,0.16312988102436066,-0.1357974261045456,0.14855380356311798,0.09910932928323746,-0.11026206612586975,0.11733219027519226,-0.10921750962734222,-0.19104771316051483,-0.01566886715590954,0.10623391717672348,0.08466152846813202,0.042157359421253204,-0.17538109421730042,0.04123092070221901,-0.12988434731960297,-0.15934345126152039,-0.01811312325298786,-0.10851334035396576,0.18202584981918335,-0.024785101413726807,-0.006454849150031805,0.11838754266500473,0.12741036713123322,0.12994593381881714,0.14518412947654724,0.17709890007972717,-0.0702645555138588,0.06744541972875595,0.199788898229599,0.021668236702680588,0.07733448594808578,0.10099826008081436,0.06977595388889313,0.1854162961244583,-0.007330697495490313,-0.01878996007144451,-0.11995180696249008,-0.16083639860153198,-0.09731448441743851,-0.03907309100031853,-0.15821227431297302,0.10167554765939713,-0.1941034346818924,-0.023746926337480545,0.06097478047013283,0.17926569283008575,-0.09791011363267899,-0.044569358229637146,-0.19603098928928375,-0.10649064183235168,0.14957952499389648,-0.18018527328968048,-0.14994049072265625,-0.19443506002426147,-0.02998703345656395,-0.1511138677597046,-0.09876368939876556,-0.1669333279132843,0.1771589070558548,0.08109790831804276,-0.046376969665288925,-0.024760739877820015,-0.053939707577228546,0.06663115322589874,0.0739772692322731,0.08086894452571869,-0.18159569799900055,-0.0015921698650345206,-0.13534444570541382,-0.02740386873483658,-0.02914680726826191,-0.15331143140792847,-0.11866749078035355,-0.14861536026000977,-0.08721564710140228,0.04000186547636986,-0.16788440942764282,0.03475728631019592,0.08985167741775513,-0.11511191725730896,0.029436642304062843,-0.008355909958481789,-0.004385443404316902,0.0269972812384367,-0.07899639010429382,-0.034050337970256805,-0.14628441631793976,0.11253850162029266,0.14697061479091644,0.18960131704807281,0.030845770612359047,0.00543760834261775,0.08925102651119232,0.034200891852378845,0.10950545966625214,0.05895094573497772,0.081218421459198,0.18366636335849762,0.002814902225509286,-0.19805707037448883,-0.17798931896686554,-0.17725491523742676,-0.06466806679964066,-0.1022806465625763,-0.07742785662412643,-0.04797658696770668,0.024597961455583572,0.08916343748569489,0.024084078148007393,-0.04974063113331795,-0.13567696511745453,0.1729484647512436,0.15935488045215607,-0.058184657245874405,-0.16888925433158875,-0.18140505254268646,0.08958139270544052,0.08225488662719727,0.1945360153913498,0.11960561573505402,-0.13234259188175201,-0.13472691178321838,-0.02358744479715824,-0.040811385959386826,-0.07186006754636765,-0.18354620039463043,0.12316782772541046,0.18263398110866547,-0.05514766275882721,-0.09356460720300674,0.0013495729072019458,0.1699671894311905,0.026047801598906517,-0.07044880837202072,-0.12288198620080948,0.1513746976852417,0.1437573879957199,-0.17491908371448517,0.030039137229323387,-0.10564476251602173,-0.12344615161418915,0.05051201209425926,0.05381070077419281,0.08999365568161011,-0.16253452003002167,0.07317757606506348,0.0620514452457428,0.02666213922202587,0.15008729696273804,-0.07851192355155945,-0.1598186045885086,0.018196146935224533,-0.14217731356620789,-0.15198379755020142,0.03870132565498352,0.16420376300811768,-0.071898452937603,0.14593355357646942,-0.0029701734893023968,-0.06632442772388458,-0.01303599588572979,0.09000781178474426,0.010614837519824505,-0.06013334169983864,0.023962989449501038,0.01582299917936325,-0.13401903212070465,-0.07994852215051651,-0.13325832784175873,0.19397953152656555,0.1077943816781044,-0.04798530042171478,0.15782199800014496,-0.12167216837406158,0.08913590759038925,-0.15758812427520752,0.1950078159570694,0.12129365652799606,-0.19861958920955658,0.18789611756801605,-0.15181460976600647,0.17144571244716644,-0.1501844972372055,0.1781981885433197,-0.11950869858264923,0.13129006326198578,-0.14933863282203674,0.1653449684381485,0.14982657134532928,0.09286049008369446,0.025305936112999916,-0.15199564397335052,0.06990185379981995,0.07790885120630264,-0.13904538750648499,-0.06235891208052635,-0.11103099584579468,0.17856600880622864,0.07153885066509247,0.05866079404950142,0.008904244750738144,-0.19021953642368317,0.08199159055948257,-0.01425235252827406,0.14915060997009277,0.03468099981546402,0.0495510995388031,-0.03422413766384125,-0.09187771379947662,0.1939522922039032,-0.04097605496644974,0.13495594263076782,-0.15320812165737152,-0.07083141058683395,-0.011762978509068489,0.06265733391046524,-0.1401376724243164,0.07388339936733246,0.19215919077396393,0.10968387126922607,0.08291351795196533,0.018451975658535957,0.10175418853759766,-0.07522863894701004,-0.00516414875164628,0.1941511034965515,-0.177570179104805,0.038150854408741,-0.1855096071958542,-0.17303040623664856,0.16492561995983124,-0.19228562712669373,-0.13190075755119324,0.059804368764162064,-0.10090519487857819,0.12061392515897751,-0.0419083796441555,-0.11778999865055084,-0.05437416955828667,0.11578791588544846,0.11068007349967957,0.12977351248264313,-0.18099097907543182,0.004054563585668802,-0.11589838564395905,-0.03496647626161575,-0.17050379514694214,-0.1637428104877472,-0.19208884239196777,-0.03122427500784397,-0.040880583226680756,-0.16850018501281738,0.13103583455085754,0.19469274580478668],[-0.028078638017177582,0.14034706354141235,-0.007905206643044949,0.11545855551958084,0.02898460067808628,-0.1852763146162033,0.11426150053739548,-0.19832077622413635,-0.028192680329084396,-0.031036444008350372,0.07850106805562973,-0.05628335475921631,0.1345052868127823,0.10168380290269852,0.08410065621137619,-0.16948087513446808,-0.1640833020210266,0.08199425041675568,0.12410814315080643,-0.05675453692674637,0.1925140619277954,-0.048472605645656586,0.0019095452735200524,0.08751232922077179,-0.07373150438070297,-0.12446852773427963,0.0009291329188272357,-0.19415690004825592,0.08021555840969086,0.08941803127527237,0.14979250729084015,-0.04845700040459633,0.12713725864887238,0.09889951348304749,-0.06645924597978592,0.06415115296840668,-0.12105408310890198,-0.13556800782680511,0.013196447864174843,-0.05094217509031296,0.08904340118169785,-0.03603345900774002,0.10730919986963272,0.002869881922379136,-0.037763018161058426,0.1971481442451477,0.13875344395637512,-0.16788281500339508,-0.19961753487586975,0.08199213445186615,0.01968931220471859,0.19856885075569153,0.170965313911438,0.06491883844137192,-0.18892301619052887,0.19381839036941528,-0.04166395217180252,0.12725433707237244,-0.010821828618645668,-0.020418984815478325,0.11294625699520111,0.13525915145874023,-0.03636930137872696,-0.1482635736465454,-0.0918601006269455,-0.0498405359685421,0.014707120135426521,0.16665025055408478,0.1300884634256363,0.1022588461637497,0.11901254206895828,-0.16592368483543396,-0.051732324063777924,-0.12883542478084564,-0.12670853734016418,-0.19583654403686523,0.0025021398905664682,0.1780068725347519,0.15781891345977783,-0.13549207150936127,0.011971309781074524,-0.023878103122115135,0.07777544111013412,-0.1531980186700821,-0.02469196915626526,0.04202713817358017,-0.05541210621595383,-0.11930111050605774,-0.12361949682235718,-0.0953846201300621,-0.07715467363595963,-0.15814538300037384,0.01251186616718769,-0.1856856644153595,-0.01971626468002796,-0.1657165288925171,0.17313294112682343,-0.012360929511487484,-0.17091810703277588,0.12700046598911285,0.18065610527992249,-0.04755610227584839,-0.0206853449344635,0.13329681754112244,0.005189583171159029,0.01133751031011343,-0.007691740989685059,0.025634117424488068,-0.11551490426063538,-0.024219579994678497,0.0676107406616211,0.16020819544792175,0.08589158207178116,0.0019083413062617183,0.05726344883441925,0.06147780269384384,-0.04292038083076477,-0.010016911663115025,0.056622251868247986,0.028651634231209755,-0.07435539364814758,0.024251112714409828,0.018599048256874084,-0.1416052281856537,-0.0734107494354248,-0.1450549066066742,-0.019955109804868698,-0.04447735846042633,0.036713529378175735,-0.16985666751861572,0.12306471914052963,-0.11313348263502121,-0.04549797251820564,0.0505615696310997,0.13976798951625824,-0.11367381364107132,0.17989230155944824,0.15327098965644836,-0.07751725614070892,0.14068004488945007,0.1684432327747345,0.08413220196962357,-0.15612457692623138,-0.09388132393360138,-0.12419073283672333,-0.10458368062973022,0.08808807283639908,-0.019312478601932526,0.12966616451740265,0.18741875886917114,0.1468229740858078,0.010671199299395084,-0.17989960312843323,0.11659642308950424,-0.012676456943154335,-0.13841673731803894,0.10001008957624435,0.1359681636095047,0.05729945749044418,-0.17427057027816772,0.18398572504520416,-0.18826904892921448,-0.16287803649902344,0.06208451837301254,-0.021197140216827393,0.0936017706990242,0.14395402371883392,0.03580193221569061,-0.09339799731969833,0.07014820724725723,-0.16170714795589447,-0.11612556129693985,0.13962693512439728,-0.09040553122758865,-0.16491301357746124,0.16717985272407532,-0.1421871781349182,0.14195482432842255,-0.07240229845046997,0.14251595735549927,0.1565101146697998,-0.05533302202820778,-0.09694218635559082,0.12181471288204193,0.06633397191762924,-0.019925877451896667,0.0723743662238121,0.008944549597799778,0.1352323591709137,-0.019937843084335327,0.0035749985836446285,-0.02193850465118885,0.156758114695549,-0.10963369905948639,0.012658564373850822,0.09701115638017654,0.07678010314702988,-0.11807569116353989,0.020913507789373398,0.05530629679560661,0.16715654730796814,-0.03661264851689339,0.09304748475551605,0.01697208173573017,0.1469666063785553,-0.026314057409763336,-0.18322159349918365,0.03397219255566597,0.14331108331680298,-0.1783609688282013,-0.1169629618525505,-0.00920215342193842,-0.11080243438482285,-0.09146237373352051,-0.1254335194826126,-0.020299091935157776,0.1919494867324829,-0.09411393105983734,-0.18971489369869232,-0.08073673397302628,-0.19128912687301636,0.13524840772151947,0.1307026594877243,0.01690681278705597,-0.16273334622383118,0.11869055777788162,-0.17020320892333984,0.029545940458774567,0.18536826968193054,0.06507944315671921,-0.13327649235725403,-0.12880513072013855,-0.07299435883760452,0.08536533266305923,0.14330731332302094,0.18164180219173431,0.004376872908324003,-0.09557165205478668,-0.0361628495156765,0.05864885076880455,0.023971570655703545,-0.1959507316350937,0.03934970125555992,0.03715644031763077,-0.17844587564468384,0.11412554979324341,0.1482924520969391,-0.05948975309729576,-0.06904755532741547,-0.05048125609755516,0.09829273074865341,0.07242275774478912,-0.18498706817626953,-0.06756382435560226,0.0701867863535881,0.054361741989851,0.18986864387989044,0.1865997314453125,-0.025243883952498436,0.015592244453728199,-0.12067104130983353,-0.03193178400397301,0.13420112431049347,-0.1023121103644371,0.11644764244556427,-0.08492621779441833,-0.10668002814054489,0.19024260342121124,0.04710942879319191,-0.07419189065694809,0.16371139883995056,0.08515983074903488,0.06878986209630966,-0.09553435444831848,-0.0803651511669159,-0.1560715138912201,0.14778278768062592,-0.17281700670719147,0.02014816552400589,0.1495346575975418,-0.14548423886299133,-0.06829611212015152,0.07528744637966156,0.05821577459573746,-0.1482180505990982,-0.10136719793081284,-0.11830253899097443,-0.19256390631198883,0.1566752791404724,0.12305451184511185,0.17144033312797546,-0.05657064914703369,-0.13646957278251648,-0.010782060213387012,0.1547233909368515,-0.1405516266822815,-0.19771328568458557,-0.10810141265392303,-0.0726017877459526,0.17263038456439972,-0.008525809273123741,-0.037400007247924805,-0.06953654438257217,-0.10846705734729767,0.07927049696445465,0.1285196989774704,-0.0748627558350563,0.19257113337516785,0.08479081094264984,-0.0225552748888731,-0.1986822783946991,-0.17889602482318878,-0.1503383368253708,0.03725750371813774,0.054583653807640076,-0.02315305359661579,0.10349339991807938,0.17497675120830536,-0.031428370624780655,-0.08644428849220276,0.08120878040790558,-0.07570644468069077,-0.18959379196166992,0.13173359632492065,0.18823213875293732,-0.1818860024213791,0.0923052430152893,-0.1013685092329979,-0.14025923609733582,0.08515670895576477,-0.0671815499663353,0.15324850380420685,-0.08472137153148651,0.047878798097372055,-0.0826985090970993,-0.17068220674991608,-0.019299212843179703,-0.15656164288520813,0.06884296983480453,0.1804414838552475,0.1554286777973175,0.19242314994335175,0.16022805869579315,0.18768519163131714,0.14105224609375,0.08875029534101486,-0.04499168321490288,-0.19426026940345764,0.060295477509498596,0.04502125829458237,0.17946986854076385,0.09345802664756775,0.14488504827022552,0.02546539157629013,-0.12912939488887787,0.006592379882931709,0.12412989884614944,0.006208743434399366,0.1926249861717224,-0.009736442007124424,-0.12629692256450653,-0.12427539378404617,-0.03257029131054878,-0.18732279539108276,0.1303248256444931,0.007986372336745262,-0.11034667491912842,-0.01764751598238945,-0.01948314532637596,0.180449441075325,0.03744984045624733,0.1332448273897171,0.028247708454728127,0.07714223861694336,-0.1799914687871933,0.08324036747217178,0.11838409304618835,-0.10482338815927505,-0.07334481924772263,-0.14141292870044708,-0.19842775166034698,-0.041401803493499756,-0.13304008543491364,0.1286870539188385,0.09097892045974731,0.04711756482720375,0.19522684812545776,0.16505569219589233,-0.08234398812055588,-0.009372957050800323,0.17383159697055817,0.08148310333490372,0.057926129549741745,-0.0031638420186936855,0.003826205851510167,-0.12137562036514282,-0.09834056347608566,-0.1323745995759964,0.19596707820892334,0.009422984905540943,-0.14891356229782104,0.18119332194328308,0.07176854461431503,-0.06645083427429199,-0.12156335264444351,0.1751834601163864,0.10128960758447647,-0.15371845662593842,-0.07598016411066055,-0.08059005439281464,-0.12034939974546432,0.055958837270736694,0.16474750638008118,-0.038263168185949326,